{"learner":{"attributes":{"scikit_learn":"{\"_estimator_type\": \"regressor\"}"},"feature_names":["km_driven","mileage","engine","max_power","seats","name_target_enc","fuel_Diesel","fuel_Petrol","seller_type_Individual","transmission_Manual"],"feature_types":["float","float","float","float","float","float","int","int","int","int"],"gradient_booster":{"model":{"gbtree_model_param":{"num_parallel_tree":"1","num_trees":"100"},"iteration_indptr":[0,1,2,3,4,5,6,7,8,9,10,11,12,13,14,15,16,17,18,19,20,21,22,23,24,25,26,27,28,29,30,31,32,33,34,35,36,37,38,39,40,41,42,43,44,45,46,47,48,49,50,51,52,53,54,55,56,57,58,59,60,61,62,63,64,65,66,67,68,69,70,71,72,73,74,75,76,77,78,79,80,81,82,83,84,85,86,87,88,89,90,91,92,93,94,95,96,97,98,99,100],"tree_info":[0,0,0,0,0,0,0,0,0,0,0,0,0,0,0,0,0,0,0,0,0,0,0,0,0,0,0,0,0,0,0,0,0,0,0,0,0,0,0,0,0,0,0,0,0,0,0,0,0,0,0,0,0,0,0,0,0,0,0,0,0,0,0,0,0,0,0,0,0,0,0,0,0,0,0,0,0,0,0,0,0,0,0,0,0,0,0,0,0,0,0,0,0,0,0,0,0,0,0,0],"trees":[{"base_weights":[-4.0082093E-3,-1.123388E5,3.0274202E6,-2.7171175E5,2.6007594E5,2.2111008E6,4.5783465E6,-3.8750297E5,-1.3435242E5,1.4996848E5,8.931533E5,1.8819088E6,8.3788556E5,1.1020526E6,1.4594211E6,-4.6710572E5,-3.261653E5,-1.9414236E5,-6.1301105E4,7.142675E4,2.9593466E5,6.6222E5,1.1678175E6,5.8349656E5,4.0456006E5,-5.228525E5,-4.3007275E5,-3.681294E5,-3.0231603E5,-2.293646E5,-1.5096697E5,-8.758058E4,-2.9136164E4,3.430106E4,1.2915645E5,2.4096828E5,4.1020253E5,1.7601766E5,2.3752452E5,1.262624E6,9.4382556E5,-1.7022834E5,-1.4822423E5,-1.3263245E5,-1.218344E5,-9.856465E4,-1.1267061E5,-9.545365E4,-8.265692E4,-7.392614E4,-6.2259805E4,-3.6855457E4,-4.9326547E4,-1.9110553E4,-3.1706758E4,-8.3514667E2,-2.3105082E4,2.0188938E4,3.9839583E3,2.7151227E4,4.530662E4,6.5045055E4,8.631341E4,1.0500336E5,1.3518042E5,2.764703E5,3.9778616E5,2.9015588E5,8.831433E4],"categories":[],"categories_nodes":[],"categories_segments":[],"categories_sizes":[],"default_left":[0,0,0,0,0,0,0,0,0,0,0,0,0,0,0,0,0,0,0,0,0,0,0,0,0,0,0,0,0,0,0,0,0,0,0,0,0,0,0,0,0,0,0,0,0,0,0,0,0,0,0,0,0,0,0,0,0,0,0,0,0,0,0,0,0,0,0,0,0],"id":0,"left_children":[1,3,5,7,9,11,13,15,17,19,21,23,-1,-1,-1,25,27,29,31,33,35,37,39,-1,-1,41,43,45,47,49,51,53,55,57,59,61,63,-1,-1,65,67,-1,-1,-1,-1,-1,-1,-1,-1,-1,-1,-1,-1,-1,-1,-1,-1,-1,-1,-1,-1,-1,-1,-1,-1,-1,-1,-1,-1],"loss_changes":[2.4238696E15,4.0794338E14,3.127198E14,7.649874E13,1.434615E14,2.7114263E13,4.674401E12,1.2596233E13,9.610216E12,2.0110413E13,1.8572546E13,1.1116919E12,0E0,0E0,0E0,2.1162445E12,1.3678968E12,1.8069859E12,8.36809E11,2.4453096E12,3.7576224E12,1.1782807E12,1.7388578E12,0E0,0E0,2.9421365E11,1.8538824E10,3.296723E10,3.152439E11,1.9648007E11,1.8672517E11,2.2936368E11,5.6505886E11,4.825474E11,3.641175E11,4.083763E11,3.2375623E11,0E0,0E0,8.0834304E11,3.979933E11,0E0,0E0,0E0,0E0,0E0,0E0,0E0,0E0,0E0,0E0,0E0,0E0,0E0,0E0,0E0,0E0,0E0,0E0,0E0,0E0,0E0,0E0,0E0,0E0,0E0,0E0,0E0,0E0],"parents":[2147483647,0,0,1,1,2,2,3,3,4,4,5,5,6,6,7,7,8,8,9,9,10,10,11,11,15,15,16,16,17,17,18,18,19,19,20,20,21,21,22,22,25,25,26,26,27,27,28,28,29,29,30,30,31,31,32,32,33,33,34,34,35,35,36,36,39,39,40,40],"right_children":[2,4,6,8,10,12,14,16,18,20,22,24,-1,-1,-1,26,28,30,32,34,36,38,40,-1,-1,42,44,46,48,50,52,54,56,58,60,62,64,-1,-1,66,68,-1,-1,-1,-1,-1,-1,-1,-1,-1,-1,-1,-1,-1,-1,-1,-1,-1,-1,-1,-1,-1,-1,-1,-1,-1,-1,-1,-1],"split_conditions":[2E6,5.6E5,3.975E6,3.081025E5,1.0996E6,2.95E6,5.15E6,1.7935708E5,4.5E5,7.566667E5,1.4916666E6,8E4,8.3788556E5,1.1020526E6,1.4594211E6,9.7E4,2.3415377E5,3.8975E5,5.1933334E5,6.5455556E5,8.85E5,1.25E6,6.8745E4,5.8349656E5,4.0456006E5,2.2E4,1.4142858E5,5E4,2.7125E5,3.5E5,4.8676E4,5.585E4,7.2E4,3.7E4,6.85E5,8.35E5,9.518182E5,1.7601766E5,2.3752452E5,1.58E6,1.94E1,-1.7022834E5,-1.4822423E5,-1.3263245E5,-1.218344E5,-9.856465E4,-1.1267061E5,-9.545365E4,-8.265692E4,-7.392614E4,-6.2259805E4,-3.6855457E4,-4.9326547E4,-1.9110553E4,-3.1706758E4,-8.3514667E2,-2.3105082E4,2.0188938E4,3.9839583E3,2.7151227E4,4.530662E4,6.5045055E4,8.631341E4,1.0500336E5,1.3518042E5,2.764703E5,3.9778616E5,2.9015588E5,8.831433E4],"split_indices":[5,5,5,5,5,5,5,5,5,5,5,0,0,0,0,5,5,5,5,5,5,5,0,0,0,5,5,0,5,5,0,0,0,0,5,5,5,0,0,5,1,0,0,0,0,0,0,0,0,0,0,0,0,0,0,0,0,0,0,0,0,0,0,0,0,0,0,0,0],"split_type":[0,0,0,0,0,0,0,0,0,0,0,0,0,0,0,0,0,0,0,0,0,0,0,0,0,0,0,0,0,0,0,0,0,0,0,0,0,0,0,0,0,0,0,0,0,0,0,0,0,0,0,0,0,0,0,0,0,0,0,0,0,0,0,0,0,0,0,0,0],"sum_hessian":[7.125E3,6.871E3,2.54E2,4.812E3,2.059E3,1.68E2,8.6E1,2.61E3,2.202E3,1.755E3,3.04E2,1.1E2,5.8E1,2.4E1,6.2E1,1.133E3,1.477E3,1.21E3,9.92E2,1.142E3,6.13E2,1.67E2,1.37E2,9.6E1,1.4E1,4.47E2,6.86E2,5.3E2,9.47E2,6.64E2,5.46E2,5.45E2,4.47E2,6.96E2,4.46E2,4.16E2,1.97E2,1.09E2,5.8E1,9.3E1,4.4E1,1.68E2,2.79E2,4.45E2,2.41E2,9.1E1,4.39E2,5.88E2,3.59E2,3.67E2,2.97E2,1.8E2,3.66E2,2.37E2,3.08E2,2.89E2,1.58E2,2.7E2,4.26E2,1.63E2,2.83E2,2.78E2,1.38E2,8.3E1,1.14E2,1.7E1,7.6E1,4.2E1,2E0],"tree_param":{"num_deleted":"0","num_feature":"10","num_nodes":"69","size_leaf_vector":"1"}},{"base_weights":[7.132299E2,-7.5742E4,2.223396E6,-1.6801095E5,2.5791078E5,1.6262388E6,3.234285E6,-2.5858148E5,-5.4169332E4,1.6540169E5,7.3309994E5,1.4159E6,6.184631E5,7.846615E5,1.0285445E6,-3.1783828E5,-2.0775577E5,-9.9162375E4,-2.3362126E3,1.14950164E5,3.0134044E5,5.5718444E5,8.792476E5,1.1890654E6,1.5371971E6,-3.6158912E5,-2.904103E5,-2.290803E5,-1.811517E5,-1.3187997E5,-7.597157E4,1.3695592E4,-3.3670703E4,7.546762E4,1.5241544E5,2.5086516E5,3.7093497E5,1.4222053E5,1.8681075E5,9.5373544E5,6.859445E5,1.781466E5,3.7121003E5,4.6449988E5,1.2367674E5,-1.18395016E5,-1.0230196E5,-7.280556E4,-8.824521E4,-5.6471855E4,-6.971008E4,-4.6613383E4,-5.6661965E4,-4.049673E4,4.0739424E3,-2.697221E4,-1.5807113E4,-5.7556367E3,8.6518E3,-1.467695E4,1.1387781E3,7.209993E4,2.1689564E4,3.823029E4,5.407103E4,5.9434742E4,8.376311E4,1.2531803E5,9.9185875E4,2.3778289E5,3.1035688E5,2.207259E5,1.0380762E5],"categories":[],"categories_nodes":[],"categories_segments":[],"categories_sizes":[],"default_left":[0,0,0,0,0,0,0,0,0,0,0,0,0,0,0,0,0,0,0,0,0,0,0,0,0,0,0,0,0,0,0,0,0,0,0,0,0,0,0,0,0,0,0,0,0,0,0,0,0,0,0,0,0,0,0,0,0,0,0,0,0,0,0,0,0,0,0,0,0,0,0,0,0],"id":1,"left_children":[1,3,5,7,9,11,13,15,17,19,21,23,-1,-1,-1,25,27,29,31,33,35,37,39,41,43,45,47,49,51,53,55,57,59,61,63,65,67,-1,-1,69,71,-1,-1,-1,-1,-1,-1,-1,-1,-1,-1,-1,-1,-1,-1,-1,-1,-1,-1,-1,-1,-1,-1,-1,-1,-1,-1,-1,-1,-1,-1,-1,-1],"loss_changes":[1.2111302E15,2.1215746E14,1.3780765E14,5.564313E13,6.551001E13,1.0906835E13,1.4864613E12,8.987353E12,5.5805556E12,8.545112E12,5.7575295E12,1.06119247E12,0E0,0E0,0E0,1.5581923E12,8.781195E11,9.6193636E11,5.5957494E11,1.340508E12,1.09427084E12,3.2015122E11,1.2320265E12,4.440132E11,1.7594266E11,2.2607299E11,8.15876E10,7.652508E10,1.1513574E11,2.415269E11,2.3924336E11,3.6753654E11,2.1562543E11,2.161684E11,3.0229607E11,2.422263E11,1.259927E11,0E0,0E0,3.7758802E11,4.2264533E11,0E0,0E0,0E0,0E0,0E0,0E0,0E0,0E0,0E0,0E0,0E0,0E0,0E0,0E0,0E0,0E0,0E0,0E0,0E0,0E0,0E0,0E0,0E0,0E0,0E0,0E0,0E0,0E0,0E0,0E0,0E0,0E0],"parents":[2147483647,0,0,1,1,2,2,3,3,4,4,5,5,6,6,7,7,8,8,9,9,10,10,11,11,15,15,16,16,17,17,18,18,19,19,20,20,21,21,22,22,23,23,24,24,25,25,26,26,27,27,28,28,29,29,30,30,31,31,32,32,33,33,34,34,35,35,36,36,39,39,40,40],"right_children":[2,4,6,8,10,12,14,16,18,20,22,24,-1,-1,-1,26,28,30,32,34,36,38,40,42,44,46,48,50,52,54,56,58,60,62,64,66,68,-1,-1,70,72,-1,-1,-1,-1,-1,-1,-1,-1,-1,-1,-1,-1,-1,-1,-1,-1,-1,-1,-1,-1,-1,-1,-1,-1,-1,-1,-1,-1,-1,-1,-1,-1],"split_conditions":[2.2997368E6,6.3875E5,3.975E6,3.506E5,1.2E6,3.2E6,5.15E6,2E5,5.0227272E5,8.693333E5,1.58E6,2.49E6,6.184631E5,7.846615E5,1.0285445E6,1.1530014E5,2.75E5,4.1949984E5,7.9328E4,7.283333E5,1.0375E6,1.3742858E6,7.2E4,1.26E1,1.23E5,5.775E4,1E0,2.5E4,3.5E4,2.809E1,1.94E1,5.5025E5,5.933333E5,1.3E3,7.898889E5,8.25E1,3.04E4,1.4222053E5,1.8681075E5,1.7625E6,1.77E2,1.781466E5,3.7121003E5,4.6449988E5,1.2367674E5,-1.18395016E5,-1.0230196E5,-7.280556E4,-8.824521E4,-5.6471855E4,-6.971008E4,-4.6613383E4,-5.6661965E4,-4.049673E4,4.0739424E3,-2.697221E4,-1.5807113E4,-5.7556367E3,8.6518E3,-1.467695E4,1.1387781E3,7.209993E4,2.1689564E4,3.823029E4,5.407103E4,5.9434742E4,8.376311E4,1.2531803E5,9.9185875E4,2.3778289E5,3.1035688E5,2.207259E5,1.0380762E5],"split_indices":[5,5,5,5,5,5,5,5,5,5,5,5,0,0,0,5,5,5,0,5,5,5,0,1,0,5,8,0,0,1,1,5,5,0,5,3,0,0,0,5,3,0,0,0,0,0,0,0,0,0,0,0,0,0,0,0,0,0,0,0,0,0,0,0,0,0,0,0,0,0,0,0,0],"split_type":[0,0,0,0,0,0,0,0,0,0,0,0,0,0,0,0,0,0,0,0,0,0,0,0,0,0,0,0,0,0,0,0,0,0,0,0,0,0,0,0,0,0,0,0,0,0,0,0,0,0,0,0,0,0,0,0,0,0,0,0,0,0,0,0,0,0,0,0,0,0,0,0,0],"sum_hessian":[7.125E3,6.889E3,2.36E2,5.397E3,1.492E3,1.5E2,8.6E1,3.005E3,2.392E3,1.25E3,2.42E2,1.04E2,4.6E1,2.4E1,6.2E1,1.385E3,1.62E3,1.28E3,1.112E3,9.13E2,3.37E2,1.12E2,1.3E2,4E1,6.4E1,5.29E2,8.56E2,8.95E2,7.25E2,5.29E2,7.51E2,7.36E2,3.76E2,4.46E2,4.67E2,1.98E2,1.39E2,5.3E1,5.9E1,9.1E1,3.9E1,4E0,3.6E1,6.3E1,1E0,1.96E2,3.33E2,6.7E1,7.89E2,7.1E1,8.24E2,1.72E2,5.53E2,5.18E2,1.1E1,4.68E2,2.83E2,2.32E2,5.04E2,2.67E2,1.09E2,7E0,4.39E2,2.49E2,2.18E2,7.2E1,1.26E2,6E1,7.9E1,3.4E1,5.7E1,3.3E1,6E0],"tree_param":{"num_deleted":"0","num_feature":"10","num_nodes":"73","size_leaf_vector":"1"}},{"base_weights":[1.1481039E3,-5.2866355E4,1.5714371E6,-1.2668235E5,1.540676E5,1.1499962E6,2.2848408E6,-1.8686716E5,-5.417064E4,9.325919E4,4.9652503E5,1.0019636E6,1.4562394E6,1.9610816E6,7.6700156E5,-2.3352611E5,-1.5802428E5,-8.982168E4,-2.1889834E4,5.4745395E4,1.7421414E5,3.7798356E5,6.22135E5,8.4574475E5,3.2552606E5,4.9458772E5,3.3422603E5,6.23117E5,3.5386884E5,-2.6544503E5,-2.1836942E5,-1.7890906E5,-1.4169652E5,-1.0769372E5,-7.242924E4,-2.452124E3,-3.7952297E4,3.2399197E4,8.3990734E4,1.3796816E5,2.3137152E5,3.2989684E5,4.3900525E5,6.735729E5,4.882745E5,2.7551566E5,5.641442E5,-8.415369E4,-7.461243E4,-6.6063266E4,-4.8160492E4,-4.734494E4,-5.5981867E4,-3.1849385E4,-4.3329066E4,-2.5633707E4,-3.7209027E4,-1.8327152E4,-2.919292E4,-5.428335E3,9.240526E3,-1.5281882E4,-5.7984595E3,1.5783339E4,4.2256724E3,3.1446066E4,1.3707406E4,3.6973258E4,6.55534E4,7.8874664E4,6.232776E4,1.0268702E5,6.4960062E4,1.4612989E5,1.0565677E5,2.1570744E5,1.5178658E5,1.5645572E5,7.711423E4,4.115475E4,1.7793664E5],"categories":[],"categories_nodes":[],"categories_segments":[],"categories_sizes":[],"default_left":[0,0,0,0,0,0,0,0,0,0,0,0,0,0,0,0,0,0,0,0,0,0,0,0,0,0,0,0,0,0,0,0,0,0,0,0,0,0,0,0,0,0,0,0,0,0,0,0,0,0,0,0,0,0,0,0,0,0,0,0,0,0,0,0,0,0,0,0,0,0,0,0,0,0,0,0,0,0,0,0,0],"id":2,"left_children":[1,3,5,7,9,11,13,15,17,19,21,23,25,27,-1,29,31,33,35,37,39,41,43,45,-1,-1,-1,-1,-1,47,49,51,53,55,57,59,61,63,65,67,69,71,73,75,77,-1,79,-1,-1,-1,-1,-1,-1,-1,-1,-1,-1,-1,-1,-1,-1,-1,-1,-1,-1,-1,-1,-1,-1,-1,-1,-1,-1,-1,-1,-1,-1,-1,-1,-1,-1],"loss_changes":[6.044984E14,1.0526451E14,6.8628276E13,2.215516E13,3.768732E13,5.386342E12,2.6428142E12,3.6976313E12,2.65073E12,4.7920007E12,3.829798E12,4.4576224E11,1.2570832E12,1.5379674E12,0E0,4.5387822E11,5.6048904E11,3.325674E11,3.7800228E11,6.802094E11,9.956544E11,2.7478563E11,5.731139E11,3.2057695E11,0E0,0E0,0E0,0E0,0E0,1.4969471E10,4.164944E10,9.231663E10,7.879E10,1.8493945E11,1.5147467E11,2.8612955E11,1.5937988E11,2.1913017E11,3.5579678E11,3.3595956E11,8.7637885E10,4.3897586E10,7.896931E10,3.37113E11,1.7342608E11,0E0,5.473121E10,0E0,0E0,0E0,0E0,0E0,0E0,0E0,0E0,0E0,0E0,0E0,0E0,0E0,0E0,0E0,0E0,0E0,0E0,0E0,0E0,0E0,0E0,0E0,0E0,0E0,0E0,0E0,0E0,0E0,0E0,0E0,0E0,0E0,0E0],"parents":[2147483647,0,0,1,1,2,2,3,3,4,4,5,5,6,6,7,7,8,8,9,9,10,10,11,11,12,12,13,13,15,15,16,16,17,17,18,18,19,19,20,20,21,21,22,22,23,23,29,29,30,30,31,31,32,32,33,33,34,34,35,35,36,36,37,37,38,38,39,39,40,40,41,41,42,42,43,43,44,44,46,46],"right_children":[2,4,6,8,10,12,14,16,18,20,22,24,26,28,-1,30,32,34,36,38,40,42,44,46,-1,-1,-1,-1,-1,48,50,52,54,56,58,60,62,64,66,68,70,72,74,76,78,-1,80,-1,-1,-1,-1,-1,-1,-1,-1,-1,-1,-1,-1,-1,-1,-1,-1,-1,-1,-1,-1,-1,-1,-1,-1,-1,-1,-1,-1,-1,-1,-1,-1,-1,-1],"split_conditions":[2.2997368E6,5.952902E5,3.975E6,3.241738E5,1.1545E6,3.2E6,5.4636365E6,1.7E5,4.567998E5,8.024998E5,1.58E6,2.49E6,1.997E3,3.04E4,7.6700156E5,7.75E4,2.4678558E5,3.925E5,5.2132E4,6.85E5,9.25E5,1.3742858E6,7.2E4,4.7564E4,3.2552606E5,4.9458772E5,3.3422603E5,6.23117E5,3.5386884E5,2.2E4,2.114E1,5.585E4,1.9077E4,5.85E4,8.0251E4,1E0,1.388E3,5E4,7E4,1.173E2,3.04E4,9.3E4,5.07E4,1E0,1.77E2,2.7551566E5,5.07E4,-8.415369E4,-7.461243E4,-6.6063266E4,-4.8160492E4,-4.734494E4,-5.5981867E4,-3.1849385E4,-4.3329066E4,-2.5633707E4,-3.7209027E4,-1.8327152E4,-2.919292E4,-5.428335E3,9.240526E3,-1.5281882E4,-5.7984595E3,1.5783339E4,4.2256724E3,3.1446066E4,1.3707406E4,3.6973258E4,6.55534E4,7.8874664E4,6.232776E4,1.0268702E5,6.4960062E4,1.4612989E5,1.0565677E5,2.1570744E5,1.5178658E5,1.5645572E5,7.711423E4,4.115475E4,1.7793664E5],"split_indices":[5,5,5,5,5,5,5,5,5,5,5,5,2,0,0,5,5,5,0,5,5,5,0,0,0,0,0,0,0,5,1,0,0,0,0,6,2,0,0,3,0,0,0,9,3,0,0,0,0,0,0,0,0,0,0,0,0,0,0,0,0,0,0,0,0,0,0,0,0,0,0,0,0,0,0,0,0,0,0,0,0],"split_type":[0,0,0,0,0,0,0,0,0,0,0,0,0,0,0,0,0,0,0,0,0,0,0,0,0,0,0,0,0,0,0,0,0,0,0,0,0,0,0,0,0,0,0,0,0,0,0,0,0,0,0,0,0,0,0,0,0,0,0,0,0,0,0,0,0,0,0,0,0,0,0,0,0,0,0,0,0,0,0,0,0],"sum_hessian":[7.125E3,6.889E3,2.36E2,5.078E3,1.811E3,1.5E2,8.6E1,2.774E3,2.304E3,1.539E3,2.72E2,1.04E2,4.6E1,4.3E1,4.3E1,1.057E3,1.717E3,1.094E3,1.21E3,1.044E3,4.95E2,1.42E2,1.3E2,4E1,6.4E1,2.7E1,1.9E1,3.6E1,7E0,3.35E2,7.22E2,7.49E2,9.68E2,5.37E2,5.57E2,5.48E2,6.62E2,5.93E2,4.51E2,3.05E2,1.9E2,8.3E1,5.9E1,9.1E1,3.9E1,3E1,1E1,1.68E2,1.67E2,6.97E2,2.5E1,2.06E2,5.43E2,7.2E1,8.96E2,2.3E2,3.07E2,3.85E2,1.72E2,3.73E2,1.75E2,3.89E2,2.73E2,2.81E2,3.12E2,2.91E2,1.6E2,2.6E2,4.5E1,7.7E1,1.13E2,7.3E1,1E1,3.5E1,2.4E1,6.9E1,2.2E1,3.3E1,6E0,1E0,9E0],"tree_param":{"num_deleted":"0","num_feature":"10","num_nodes":"81","size_leaf_vector":"1"}},{"base_weights":[1.3850939E3,-3.6897555E4,1.1143221E6,-8.2057766E4,1.30535055E5,8.159175E5,1.6194344E6,-1.2628089E5,-2.4876666E4,8.6616695E4,3.8666278E5,7.091853E5,1.03700194E6,1.3949614E6,5.421307E5,-1.5533933E5,-9.942336E4,-4.583644E4,5.115952E3,6.045738E4,1.6685753E5,3.3280616E5,4.8612825E5,6.0408494E5,7.645688E5,1.1717019E6,2.389716E5,4.3650662E5,7.7207394E5,-1.755808E5,-1.3821822E5,-1.0985196E5,-8.388516E4,-5.676552E4,-3.0625518E4,2.5748337E3,1.1018422E5,3.971929E4,8.0379945E4,1.4261752E5,2.0897269E5,2.7859253E5,3.8458884E5,5.0028056E5,1.1693047E5,1.9051223E5,3.1766916E5,2.3119531E5,5.6296316E4,3.5699466E5,1.0172029E5,1.589925E5,3.1165997E5,-5.7925035E4,-4.9900977E4,-3.7575945E4,-4.3579934E4,-3.442611E4,-3.0127555E4,-2.1369361E4,-2.8393637E4,-1.1135511E4,-1.9811508E4,-5.297946E3,-1.452633E4,9.185618E3,-1.488497E3,3.8219598E4,1.20530625E4,1.2757191E4,-1.4176813E4,3.307454E4,1.6560844E4,5.1996418E4,3.7109062E4,5.2811887E4,7.0951875E4,6.934114E4,9.873303E4,1.3950556E5,9.8871586E4,1.5658111E5,1.09552914E5,5.1598777E4,-7.2398813E3,2.5264258E4,1.04255195E5,5.8273316E4,1.3273313E4],"categories":[],"categories_nodes":[],"categories_segments":[],"categories_sizes":[],"default_left":[0,0,0,0,0,0,0,0,0,0,0,0,0,0,0,0,0,0,0,0,0,0,0,0,0,0,0,0,0,0,0,0,0,0,0,0,0,0,0,0,0,0,0,0,0,0,0,0,0,0,0,0,0,0,0,0,0,0,0,0,0,0,0,0,0,0,0,0,0,0,0,0,0,0,0,0,0,0,0,0,0,0,0,0,0,0,0,0,0],"id":3,"left_children":[1,3,5,7,9,11,13,15,17,19,21,23,25,27,-1,29,31,33,35,37,39,41,43,45,47,49,-1,-1,51,53,55,57,59,61,63,65,67,69,71,73,75,77,79,81,83,-1,85,-1,-1,-1,-1,87,-1,-1,-1,-1,-1,-1,-1,-1,-1,-1,-1,-1,-1,-1,-1,-1,-1,-1,-1,-1,-1,-1,-1,-1,-1,-1,-1,-1,-1,-1,-1,-1,-1,-1,-1,-1,-1],"loss_changes":[3.0365274E14,5.210801E13,3.4401178E13,1.372026E13,1.6434615E13,2.827699E12,1.1441726E12,2.3726968E12,1.4888506E12,2.6158175E12,9.845856E11,1.4932142E11,5.887964E11,5.2269416E11,0E0,4.8447567E11,2.4891726E11,2.30002E11,2.6003243E11,3.872399E11,2.8360416E11,2.914968E11,3.229268E11,1.6178374E11,8.3462455E10,2.2695379E10,0E0,0E0,8.162215E11,7.612662E10,5.490973E10,3.2372687E10,8.094587E10,1.4511872E11,1.3412319E11,2.0157084E11,2.2599664E10,1.1544068E11,3.5562743E11,9.3586194E10,5.810946E10,9.893577E10,1.5649368E11,1.4212399E10,3.5221643E10,0E0,1.2543328E10,0E0,0E0,0E0,0E0,3.5410412E9,0E0,0E0,0E0,0E0,0E0,0E0,0E0,0E0,0E0,0E0,0E0,0E0,0E0,0E0,0E0,0E0,0E0,0E0,0E0,0E0,0E0,0E0,0E0,0E0,0E0,0E0,0E0,0E0,0E0,0E0,0E0,0E0,0E0,0E0,0E0,0E0,0E0],"parents":[2147483647,0,0,1,1,2,2,3,3,4,4,5,5,6,6,7,7,8,8,9,9,10,10,11,11,12,12,13,13,15,15,16,16,17,17,18,18,19,19,20,20,21,21,22,22,23,23,24,24,25,25,28,28,29,29,30,30,31,31,32,32,33,33,34,34,35,35,36,36,37,37,38,38,39,39,40,40,41,41,42,42,43,43,44,44,46,46,51,51],"right_children":[2,4,6,8,10,12,14,16,18,20,22,24,26,28,-1,30,32,34,36,38,40,42,44,46,48,50,-1,-1,52,54,56,58,60,62,64,66,68,70,72,74,76,78,80,82,84,-1,86,-1,-1,-1,-1,88,-1,-1,-1,-1,-1,-1,-1,-1,-1,-1,-1,-1,-1,-1,-1,-1,-1,-1,-1,-1,-1,-1,-1,-1,-1,-1,-1,-1,-1,-1,-1,-1,-1,-1,-1,-1,-1],"split_conditions":[2.2997368E6,6.412E5,3.975E6,3.597271E5,1.25E6,3.2E6,5.4636365E6,2.0861106E5,5.258333E5,8.85E5,1.7625E6,2.49E6,1.997E3,3.2995E4,5.421307E5,1.3E5,2.94E5,4.567998E5,2.809E1,7.3588094E5,1.0996E6,1.3946E2,1.35E5,8E4,1.23E5,2.254E1,2.389716E5,4.3650662E5,4.1E4,6.8E4,6.4916E4,2.6E5,5.85E4,4.9562E4,7.3E4,2.44E4,5.6E5,1.75E5,5.07E4,2.8E4,1.498E3,1.4916666E6,4.1E4,6.8745E4,1.45E5,1.9051223E5,8.0251E4,2.3119531E5,5.6296316E4,3.5699466E5,1.0172029E5,1.815E1,3.1165997E5,-5.7925035E4,-4.9900977E4,-3.7575945E4,-4.3579934E4,-3.442611E4,-3.0127555E4,-2.1369361E4,-2.8393637E4,-1.1135511E4,-1.9811508E4,-5.297946E3,-1.452633E4,9.185618E3,-1.488497E3,3.8219598E4,1.20530625E4,1.2757191E4,-1.4176813E4,3.307454E4,1.6560844E4,5.1996418E4,3.7109062E4,5.2811887E4,7.0951875E4,6.934114E4,9.873303E4,1.3950556E5,9.8871586E4,1.5658111E5,1.09552914E5,5.1598777E4,-7.2398813E3,2.5264258E4,1.04255195E5,5.8273316E4,1.3273313E4],"split_indices":[5,5,5,5,5,5,5,5,5,5,5,5,2,0,0,5,5,5,1,5,5,3,0,0,0,1,0,0,0,5,0,5,0,0,0,0,5,0,0,0,2,5,0,0,0,0,0,0,0,0,0,1,0,0,0,0,0,0,0,0,0,0,0,0,0,0,0,0,0,0,0,0,0,0,0,0,0,0,0,0,0,0,0,0,0,0,0,0,0],"split_type":[0,0,0,0,0,0,0,0,0,0,0,0,0,0,0,0,0,0,0,0,0,0,0,0,0,0,0,0,0,0,0,0,0,0,0,0,0,0,0,0,0,0,0,0,0,0,0,0,0,0,0,0,0,0,0,0,0,0,0,0,0,0,0,0,0,0,0,0,0,0,0,0,0,0,0,0,0,0,0,0,0,0,0,0,0,0,0,0,0],"sum_hessian":[7.125E3,6.889E3,2.36E2,5.426E3,1.463E3,1.5E2,8.6E1,3.059E3,2.367E3,1.25E3,2.13E2,1.04E2,4.6E1,4.3E1,4.3E1,1.467E3,1.592E3,1.393E3,9.74E2,9.44E2,3.06E2,1.41E2,7.2E1,4E1,6.4E1,2.7E1,1.9E1,3.8E1,5E0,6.68E2,7.99E2,9.49E2,6.43E2,8.09E2,5.84E2,9.52E2,2.2E1,4.64E2,4.8E2,1.97E2,1.09E2,7.2E1,6.9E1,6.9E1,3E0,3.5E1,5E0,6.3E1,1E0,2.6E1,1E0,2E0,3E0,2.24E2,4.44E2,2.88E2,5.11E2,6.17E2,3.32E2,2.99E2,3.44E2,2.61E2,5.48E2,3.39E2,2.45E2,2.01E2,7.51E2,1.7E1,5E0,4.5E2,1.4E1,2.18E2,2.62E2,7.2E1,1.25E2,5.3E1,5.6E1,4E1,3.2E1,2.5E1,4.4E1,5.7E1,1.2E1,2E0,1E0,1E0,4E0,1E0,1E0],"tree_param":{"num_deleted":"0","num_feature":"10","num_nodes":"89","size_leaf_vector":"1"}},{"base_weights":[1.4395333E3,-2.5729316E4,7.9127894E5,-6.245861E4,7.723636E4,5.7978606E5,1.1492576E6,-9.408228E4,-2.8990857E4,4.505298E4,2.4258258E5,5.0221566E5,7.407457E5,1.7758832E6,1.0976626E6,-1.1747173E5,-8.076669E4,-4.2853637E4,-7.450688E3,2.6193492E4,8.29445E4,1.8488608E5,3.1340197E5,4.750865E5,6.576616E5,8.365739E5,1.708647E5,2.2654681E5,6.613948E5,1.16546805E5,1.1103769E6,-1.3051194E5,-1.0915085E5,-9.241418E4,-7.360146E4,-5.3725793E4,-3.0970646E4,-9.271945E3,7.128483E4,3.486842E4,5.204248E3,7.00275E4,1.15063445E5,1.6195808E5,2.5027905E5,2.959625E5,4.7674503E5,4.116849E5,1.679757E5,2.4204223E5,3.4919022E5,6.317108E4,2.5558808E5,3.4073056E5,6.7969875E5,-4.1782277E4,-3.6674594E4,-3.448217E4,-3.1328246E4,-1.8758057E4,-2.8581947E4,-1.8142523E4,-2.3005533E4,-1.3223071E4,-1.898599E4,-7.3312056E3,-1.9128354E4,1.0761136E3,-4.5894917E3,-4.5105527E3,2.7390705E4,8.228019E3,2.893858E4,-3.847701E4,3.6704753E3,1.9248352E4,3.7970637E4,2.8756223E4,4.6045918E4,5.2355113E4,2.1571838E4,8.489439E4,5.241892E4,7.25585E4,9.996869E4,1.8674952E5,1.9815629E4,1.3666578E5,7.754556E4,1.5887419E4,1.1935352E5,4.05431E4,2.6114762E5],"categories":[],"categories_nodes":[],"categories_segments":[],"categories_sizes":[],"default_left":[0,0,0,0,0,0,0,0,0,0,0,0,0,0,0,0,0,0,0,0,0,0,0,0,0,0,0,0,0,0,0,0,0,0,0,0,0,0,0,0,0,0,0,0,0,0,0,0,0,0,0,0,0,0,0,0,0,0,0,0,0,0,0,0,0,0,0,0,0,0,0,0,0,0,0,0,0,0,0,0,0,0,0,0,0,0,0,0,0,0,0,0,0],"id":4,"left_children":[1,3,5,7,9,11,13,15,17,19,21,23,25,27,29,31,33,35,37,39,41,43,45,47,49,51,-1,-1,-1,-1,53,55,57,59,61,63,65,67,69,71,73,75,77,79,81,83,85,87,-1,-1,89,-1,-1,-1,91,-1,-1,-1,-1,-1,-1,-1,-1,-1,-1,-1,-1,-1,-1,-1,-1,-1,-1,-1,-1,-1,-1,-1,-1,-1,-1,-1,-1,-1,-1,-1,-1,-1,-1,-1,-1,-1,-1],"loss_changes":[1.529374E14,2.6061815E13,1.7276942E13,5.372748E12,9.631447E12,1.51333E12,8.634562E11,8.0369366E11,7.369404E11,1.0826125E12,1.1474368E12,1.3035268E11,2.9458694E11,5.234114E11,3.170139E11,8.8293245E10,1.3232085E11,1.9238512E11,1.3946986E11,1.8463005E11,2.010419E11,2.0685468E11,2.3206979E11,2.6969165E11,3.163648E11,9.029917E10,0E0,0E0,0E0,0E0,1.1379986E11,9.256829E9,3.9400243E9,4.795977E10,3.7336646E10,6.944352E10,1.526876E11,7.3440666E10,3.93868E10,3.264569E11,2.811885E11,1.11951086E11,9.083329E10,1.2882097E11,5.185051E10,1.6335766E11,6.1734126E11,2.6531594E11,0E0,0E0,6.5409647E10,0E0,0E0,0E0,6.096408E11,0E0,0E0,0E0,0E0,0E0,0E0,0E0,0E0,0E0,0E0,0E0,0E0,0E0,0E0,0E0,0E0,0E0,0E0,0E0,0E0,0E0,0E0,0E0,0E0,0E0,0E0,0E0,0E0,0E0,0E0,0E0,0E0,0E0,0E0,0E0,0E0,0E0,0E0],"parents":[2147483647,0,0,1,1,2,2,3,3,4,4,5,5,6,6,7,7,8,8,9,9,10,10,11,11,12,12,13,13,14,14,15,15,16,16,17,17,18,18,19,19,20,20,21,21,22,22,23,23,24,24,25,25,30,30,31,31,32,32,33,33,34,34,35,35,36,36,37,37,38,38,39,39,40,40,41,41,42,42,43,43,44,44,45,45,46,46,47,47,50,50,54,54],"right_children":[2,4,6,8,10,12,14,16,18,20,22,24,26,28,30,32,34,36,38,40,42,44,46,48,50,52,-1,-1,-1,-1,54,56,58,60,62,64,66,68,70,72,74,76,78,80,82,84,86,88,-1,-1,90,-1,-1,-1,92,-1,-1,-1,-1,-1,-1,-1,-1,-1,-1,-1,-1,-1,-1,-1,-1,-1,-1,-1,-1,-1,-1,-1,-1,-1,-1,-1,-1,-1,-1,-1,-1,-1,-1,-1,-1,-1,-1],"split_conditions":[2.2997368E6,5.952902E5,3.975E6,3.081025E5,1.115E6,3.2E6,6.55E3,1.55E5,4.86238E5,7.898889E5,1.58E6,1.943E2,1.997E3,5.15E6,1.093E1,8.35E4,2.25E5,4.040909E5,2.739E1,8E4,9.518182E5,1.42E2,1.9E2,2.6751668E6,3.6E4,1.093E1,1.708647E5,2.2654681E5,6.613948E5,1.16546805E5,3.8E4,2.2E4,1.2318182E5,1E0,3.2995E4,6.3186E4,1.1E5,3.8E4,7.402E1,1.055E2,1E0,1.237E2,1.586E3,6.7E4,7.2E4,1.7625E6,6.6E4,1.5386E2,1.679757E5,2.4204223E5,5.2E4,6.317108E4,2.5558808E5,3.4073056E5,4.1E4,-4.1782277E4,-3.6674594E4,-3.448217E4,-3.1328246E4,-1.8758057E4,-2.8581947E4,-1.8142523E4,-2.3005533E4,-1.3223071E4,-1.898599E4,-7.3312056E3,-1.9128354E4,1.0761136E3,-4.5894917E3,-4.5105527E3,2.7390705E4,8.228019E3,2.893858E4,-3.847701E4,3.6704753E3,1.9248352E4,3.7970637E4,2.8756223E4,4.6045918E4,5.2355113E4,2.1571838E4,8.489439E4,5.241892E4,7.25585E4,9.996869E4,1.8674952E5,1.9815629E4,1.3666578E5,7.754556E4,1.5887419E4,1.1935352E5,4.05431E4,2.6114762E5],"split_indices":[5,5,5,5,5,5,0,5,5,5,5,3,2,5,1,5,5,5,1,0,5,3,3,5,0,1,0,0,0,0,0,5,5,8,0,0,0,0,3,3,6,3,2,0,0,5,0,3,0,0,0,0,0,0,0,0,0,0,0,0,0,0,0,0,0,0,0,0,0,0,0,0,0,0,0,0,0,0,0,0,0,0,0,0,0,0,0,0,0,0,0,0,0],"split_type":[0,0,0,0,0,0,0,0,0,0,0,0,0,0,0,0,0,0,0,0,0,0,0,0,0,0,0,0,0,0,0,0,0,0,0,0,0,0,0,0,0,0,0,0,0,0,0,0,0,0,0,0,0,0,0,0,0,0,0,0,0,0,0,0,0,0,0,0,0,0,0,0,0,0,0,0,0,0,0,0,0,0,0,0,0,0,0,0,0,0,0,0,0],"sum_hessian":[7.125E3,6.889E3,2.36E2,5.078E3,1.811E3,1.5E2,8.6E1,2.61E3,2.468E3,1.517E3,2.94E2,1.04E2,4.6E1,4E0,8.2E1,9.44E2,1.666E3,1.501E3,9.67E2,1.014E3,5.03E2,1.64E2,1.3E2,9.2E1,1.2E1,2.7E1,1.9E1,2E0,2E0,2E0,8E1,3.62E2,5.82E2,6.3E2,1.036E3,7.82E2,7.19E2,9.46E2,2.1E1,7.17E2,2.97E2,3.61E2,1.42E2,1.24E2,4E1,1.2E2,1E1,5.6E1,3.6E1,7E0,5E0,1E0,2.6E1,7.4E1,6E0,1.68E2,1.94E2,2.51E2,3.31E2,5.7E1,5.73E2,2.01E2,8.35E2,3.92E2,3.9E2,6.01E2,1.18E2,3.02E2,6.44E2,4E0,1.7E1,6.41E2,7.6E1,1.4E1,2.83E2,3.29E2,3.2E1,9.7E1,4.5E1,1.08E2,1.6E1,2.6E1,1.4E1,5.2E1,6.8E1,7E0,3E0,4.2E1,1.4E1,1E0,4E0,2E0,4E0],"tree_param":{"num_deleted":"0","num_feature":"10","num_nodes":"93","size_leaf_vector":"1"}},{"base_weights":[1.4775964E3,-1.7944822E4,5.661147E5,-3.7326223E4,8.067304E4,4.1412238E5,8.234103E5,-6.018456E4,-6.3849863E3,5.567715E4,2.0430702E5,3.5878397E5,5.2893956E5,1.4207065E6,7.77508E5,-7.8403586E4,-4.8253977E4,-1.892815E4,6.654359E3,4.173218E4,9.458852E4,1.9411572E5,3.525002E5,3.3667003E5,4.8938494E5,6.300386E5,4.3783522E5,1.8123745E5,5.291158E5,9.323745E4,7.8519494E5,-8.921967E4,-7.163019E4,-5.778888E4,-4.1870492E4,-2.6135861E4,-8.659466E2,2.1002305E4,-1.2021805E3,1.5939467E5,3.7655074E4,2.2416369E5,9.044962E4,1.6737414E5,2.347091E5,2.4023105E5,2.2759617E5,2.919375E5,3.9648316E5,5.950205E5,2.6697334E5,1.9389388E5,4.812405E4,1.3644375E5,6.668059E4,3.0488197E5,7.4219525E5,-2.9321762E4,-2.5384258E4,-1.8430898E4,-2.3233006E4,-1.3643541E4,-1.8187598E4,-1.3523319E4,-6.2888955E3,-8.990905E3,3.7859036E3,2.3002578E3,-5.880413E3,1.337511E3,1.9828863E4,-1.205546E3,1.0538856E4,1.3646742E5,3.287719E4,6.7207114E3,1.4047798E4,1.3133316E5,3.4679574E4,2.3095984E4,3.5330836E4,5.077194E4,-5.957119E3,9.699288E4,5.676323E4,1.4056069E5,-3.3358127E3,9.418445E4,4.1899234E4,1.0513534E5,1.5022647E5,7.852009E4,2.2279377E5,1.0109057E5,2.5396576E4,2.3004477E5,1.2120901E5],"categories":[],"categories_nodes":[],"categories_segments":[],"categories_sizes":[],"default_left":[0,0,0,0,0,0,0,0,0,0,0,0,0,0,0,0,0,0,0,0,0,0,0,0,0,0,0,0,0,0,0,0,0,0,0,0,0,0,0,0,0,0,0,0,0,0,0,0,0,0,0,0,0,0,0,0,0,0,0,0,0,0,0,0,0,0,0,0,0,0,0,0,0,0,0,0,0,0,0,0,0,0,0,0,0,0,0,0,0,0,0,0,0,0,0,0,0],"id":5,"left_children":[1,3,5,7,9,11,13,15,17,19,21,23,25,27,29,31,33,35,37,39,41,43,45,47,49,51,53,-1,-1,-1,55,57,59,61,63,65,67,69,71,73,75,77,79,81,83,-1,85,87,89,91,93,-1,-1,-1,-1,-1,95,-1,-1,-1,-1,-1,-1,-1,-1,-1,-1,-1,-1,-1,-1,-1,-1,-1,-1,-1,-1,-1,-1,-1,-1,-1,-1,-1,-1,-1,-1,-1,-1,-1,-1,-1,-1,-1,-1,-1,-1],"loss_changes":[7.815827E13,1.3172228E13,8.927358E12,4.0727567E12,3.4868916E12,7.696485E11,1.280693E12,7.161239E11,4.005077E11,5.077412E11,2.1852691E11,1.3849068E11,1.5704313E11,3.3498333E11,5.3741617E10,8.9508545E10,1.1955549E11,1.6245096E11,1.3540819E11,3.2788487E11,1.1272664E11,1.5611147E11,4.3364568E11,1.3308212E11,1.4657467E11,4.9179263E10,1.3825475E9,0E0,0E0,0E0,5.056653E10,1.1348214E10,4.3241964E10,2.5211961E10,7.9789556E10,1.3291317E11,5.722683E10,3.1676835E11,7.964472E10,2.8863752E11,9.323092E10,1.1173039E11,7.994278E10,4.248332E10,2.1697738E11,0E0,5.803697E11,1.4719648E11,2.1039677E9,1.9923757E11,4.8042213E10,0E0,0E0,0E0,0E0,0E0,2.8965025E11,0E0,0E0,0E0,0E0,0E0,0E0,0E0,0E0,0E0,0E0,0E0,0E0,0E0,0E0,0E0,0E0,0E0,0E0,0E0,0E0,0E0,0E0,0E0,0E0,0E0,0E0,0E0,0E0,0E0,0E0,0E0,0E0,0E0,0E0,0E0,0E0,0E0,0E0,0E0,0E0],"parents":[2147483647,0,0,1,1,2,2,3,3,4,4,5,5,6,6,7,7,8,8,9,9,10,10,11,11,12,12,13,13,14,14,15,15,16,16,17,17,18,18,19,19,20,20,21,21,22,22,23,23,24,24,25,25,26,26,30,30,31,31,32,32,33,33,34,34,35,35,36,36,37,37,38,38,39,39,40,40,41,41,42,42,43,43,44,44,46,46,47,47,48,48,49,49,50,50,56,56],"right_children":[2,4,6,8,10,12,14,16,18,20,22,24,26,28,30,32,34,36,38,40,42,44,46,48,50,52,54,-1,-1,-1,56,58,60,62,64,66,68,70,72,74,76,78,80,82,84,-1,86,88,90,92,94,-1,-1,-1,-1,-1,96,-1,-1,-1,-1,-1,-1,-1,-1,-1,-1,-1,-1,-1,-1,-1,-1,-1,-1,-1,-1,-1,-1,-1,-1,-1,-1,-1,-1,-1,-1,-1,-1,-1,-1,-1,-1,-1,-1,-1,-1],"split_conditions":[2.2997368E6,7.095238E5,3.975E6,3.925E5,1.3742858E6,3.2E6,6.55E3,1.9388889E5,5.4E5,9.518182E5,1.9E2,1.943E2,2.05E4,5.15E6,1.093E1,1.0785686E5,2.639188E5,1.298E3,3.8E4,7.032E3,3.564E3,1.7625E6,1.85E4,2.6751668E6,3.6E4,2.254E1,1.84E2,1.8123745E5,5.291158E5,9.323745E4,1.537E1,2.2E4,6.8745E4,4E4,1.422E3,2.43E1,1.2E5,1E0,2.354E3,1.481E1,8.314E1,1.71E1,1.595E3,8E0,4E4,2.4023105E5,1.26E1,1.687E2,4.6957E4,1E0,2.993E3,1.9389388E5,4.812405E4,1.3644375E5,6.668059E4,3.0488197E5,3.04E4,-2.9321762E4,-2.5384258E4,-1.8430898E4,-2.3233006E4,-1.3643541E4,-1.8187598E4,-1.3523319E4,-6.2888955E3,-8.990905E3,3.7859036E3,2.3002578E3,-5.880413E3,1.337511E3,1.9828863E4,-1.205546E3,1.0538856E4,1.3646742E5,3.287719E4,6.7207114E3,1.4047798E4,1.3133316E5,3.4679574E4,2.3095984E4,3.5330836E4,5.077194E4,-5.957119E3,9.699288E4,5.676323E4,1.4056069E5,-3.3358127E3,9.418445E4,4.1899234E4,1.0513534E5,1.5022647E5,7.852009E4,2.2279377E5,1.0109057E5,2.5396576E4,2.3004477E5,1.2120901E5],"split_indices":[5,5,5,5,5,5,0,5,5,5,3,3,0,5,1,5,5,2,0,0,0,5,0,5,0,1,3,0,0,0,1,5,0,0,2,1,0,6,2,1,3,1,2,4,0,0,1,3,0,8,2,0,0,0,0,0,0,0,0,0,0,0,0,0,0,0,0,0,0,0,0,0,0,0,0,0,0,0,0,0,0,0,0,0,0,0,0,0,0,0,0,0,0,0,0,0,0],"split_type":[0,0,0,0,0,0,0,0,0,0,0,0,0,0,0,0,0,0,0,0,0,0,0,0,0,0,0,0,0,0,0,0,0,0,0,0,0,0,0,0,0,0,0,0,0,0,0,0,0,0,0,0,0,0,0,0,0,0,0,0,0,0,0,0,0,0,0,0,0,0,0,0,0,0,0,0,0,0,0,0,0,0,0,0,0,0,0,0,0,0,0,0,0,0,0,0,0],"sum_hessian":[7.125E3,6.889E3,2.36E2,5.758E3,1.131E3,1.5E2,8.6E1,3.311E3,2.447E3,9.42E2,1.89E2,1.04E2,4.6E1,4E0,8.2E1,1.308E3,2.003E3,1.247E3,1.2E3,6.95E2,2.47E2,1.79E2,1E1,9.2E1,1.2E1,1.9E1,2.7E1,2E0,2E0,2E0,8E1,4.99E2,8.09E2,8E2,1.203E3,8.91E2,3.56E2,4.24E2,7.76E2,2.2E1,6.73E2,6E0,2.41E2,1.11E2,6.8E1,1E0,9E0,5.6E1,3.6E1,7E0,5E0,1.8E1,1E0,2.4E1,3E0,9E0,7.1E1,1.68E2,3.31E2,2.98E2,5.11E2,1.53E2,6.47E2,1.042E3,1.61E2,8.11E2,8E1,2.45E2,1.11E2,3.11E2,1.13E2,7.21E2,5.5E1,2E0,2E1,2.54E2,4.19E2,1E0,5E0,1.64E2,7.7E1,1.1E2,1E0,2.1E1,4.7E1,4E0,5E0,4.8E1,8E0,2.8E1,8E0,3E0,4E0,3E0,2E0,6.5E1,6E0],"tree_param":{"num_deleted":"0","num_feature":"10","num_nodes":"97","size_leaf_vector":"1"}},{"base_weights":[1.5378779E3,-1.2435937E4,4.0777434E5,-2.7461752E4,5.1890992E4,2.9825906E5,5.9316556E5,-4.34181E4,-7.489179E3,3.0762791E4,1.2412395E5,2.5895114E5,3.7972875E5,1.1365651E6,5.5328406E5,-5.620684E4,-3.5666945E4,-1.6618203E4,1.1242511E3,5.4865625E4,2.0272379E4,9.8696E4,1.6987438E5,2.3844888E5,3.6606816E5,1.3173356E5,8.328177E4,1.4498995E5,4.2329262E5,5.0019875E5,6.700196E5,-6.407018E4,-5.2177785E4,-2.8215695E4,-4.051066E4,-1.7582764E4,5.6159617E4,5.8181724E3,-1.1842562E4,4.966156E4,2.4250947E5,-2.3631467E4,2.4761273E4,7.698647E4,1.3153638E5,1.8932714E5,7.288421E4,2.0317398E5,2.8443994E5,4.5417862E5,2.3219917E5,1.670474E5,3.9638444E5,7.5722575E5,3.6251634E5,-2.0577285E4,-1.811202E4,-1.3457425E4,-1.6353597E4,-1.0290166E4,-4.9343086E3,-1.5585397E4,-9.634525E3,-6.73752E3,-1.0643416E3,3.2118361E4,1.4021417E3,1.2532314E3,3.6710277E4,-5.898447E3,4.9587026E3,9.429667E3,2.079849E4,1.0917393E5,4.2416824E4,-1.2202206E3,-3.632461E4,2.3102876E3,1.1730943E4,7.78236E4,2.1481469E4,4.079589E4,-2.9663701E4,5.233618E4,1.3518447E5,-2.9630021E4,3.7572676E4,6.650575E4,1.336993E4,8.681773E4,1.5922726E4,6.085309E4,1.6932327E5,8.853066E4,2.865618E4,-1.7820619E5,1.3872066E5,5.0568227E4,2.3504469E5,8.1927E3,1.4734125E5],"categories":[],"categories_nodes":[],"categories_segments":[],"categories_sizes":[],"default_left":[0,0,0,0,0,0,0,0,0,0,0,0,0,0,0,0,0,0,0,0,0,0,0,0,0,0,0,0,0,0,0,0,0,0,0,0,0,0,0,0,0,0,0,0,0,0,0,0,0,0,0,0,0,0,0,0,0,0,0,0,0,0,0,0,0,0,0,0,0,0,0,0,0,0,0,0,0,0,0,0,0,0,0,0,0,0,0,0,0,0,0,0,0,0,0,0,0,0,0,0,0],"id":6,"left_children":[1,3,5,7,9,11,13,15,17,19,21,23,25,27,29,31,33,35,37,39,41,43,45,47,49,-1,-1,-1,-1,51,53,55,57,59,61,63,65,67,69,71,73,75,77,79,81,83,85,87,89,91,93,-1,95,97,99,-1,-1,-1,-1,-1,-1,-1,-1,-1,-1,-1,-1,-1,-1,-1,-1,-1,-1,-1,-1,-1,-1,-1,-1,-1,-1,-1,-1,-1,-1,-1,-1,-1,-1,-1,-1,-1,-1,-1,-1,-1,-1,-1,-1,-1,-1],"loss_changes":[4.0457044E13,6.661055E12,4.6349324E12,1.7798736E12,1.987811E12,3.852332E11,1.2565841E12,3.0578626E11,1.9518387E11,2.5451758E11,3.264191E11,1.4330574E11,1.6312487E11,2.1438923E11,1.7920164E11,3.3724826E10,6.873049E10,8.5576745E10,7.785462E10,2.867691E11,1.3972344E11,1.2675973E11,1.8242077E11,8.984147E10,7.146897E10,0E0,0E0,0E0,0E0,1.3787726E11,3.4226464E11,2.410152E9,1.0864558E10,5.4286483E10,1.1080722E11,8.135121E10,4.1430962E10,1.7905061E11,7.5748975E10,1.0501587E11,4.675728E10,1.2533842E11,1.5653673E11,9.726991E10,9.034596E10,2.5560141E11,1.8312856E11,1.5160626E11,2.7035697E10,1.07154506E11,4.0591622E10,0E0,1.9092841E12,1.3069346E11,2.883909E11,0E0,0E0,0E0,0E0,0E0,0E0,0E0,0E0,0E0,0E0,0E0,0E0,0E0,0E0,0E0,0E0,0E0,0E0,0E0,0E0,0E0,0E0,0E0,0E0,0E0,0E0,0E0,0E0,0E0,0E0,0E0,0E0,0E0,0E0,0E0,0E0,0E0,0E0,0E0,0E0,0E0,0E0,0E0,0E0,0E0,0E0],"parents":[2147483647,0,0,1,1,2,2,3,3,4,4,5,5,6,6,7,7,8,8,9,9,10,10,11,11,12,12,13,13,14,14,15,15,16,16,17,17,18,18,19,19,20,20,21,21,22,22,23,23,24,24,29,29,30,30,31,31,32,32,33,33,34,34,35,35,36,36,37,37,38,38,39,39,40,40,41,41,42,42,43,43,44,44,45,45,46,46,47,47,48,48,49,49,50,50,52,52,53,53,54,54],"right_children":[2,4,6,8,10,12,14,16,18,20,22,24,26,28,30,32,34,36,38,40,42,44,46,48,50,-1,-1,-1,-1,52,54,56,58,60,62,64,66,68,70,72,74,76,78,80,82,84,86,88,90,92,94,-1,96,98,100,-1,-1,-1,-1,-1,-1,-1,-1,-1,-1,-1,-1,-1,-1,-1,-1,-1,-1,-1,-1,-1,-1,-1,-1,-1,-1,-1,-1,-1,-1,-1,-1,-1,-1,-1,-1,-1,-1,-1,-1,-1,-1,-1,-1,-1,-1],"split_conditions":[2.2997368E6,6.6705875E5,3.975E6,3.6353844E5,1.115E6,3.2E6,6.55E3,1.8366664E5,5.1E5,3.04E4,1.5386E2,1.9E2,1.997E3,5.15E6,2.05E4,8.55E4,5.85E4,2.739E1,9E4,1.2632E2,1E0,1.4916666E6,9.5E4,2.6751668E6,3.6E4,1.3173356E5,8.328177E4,1.4498995E5,4.2329262E5,1.1688E4,3.8E4,2.2E4,5.85E4,2.9928572E5,1E0,1.298E3,5.07E4,1.38E2,2.494E3,8.2399994E5,7.032E3,7.7E4,1.298E3,3.564E3,1.45E5,2.1456E2,1.03921E5,1.687E2,1.961E1,1E0,2.982E3,1.670474E5,1.25E4,1.299E1,4.1E4,-2.0577285E4,-1.811202E4,-1.3457425E4,-1.6353597E4,-1.0290166E4,-4.9343086E3,-1.5585397E4,-9.634525E3,-6.73752E3,-1.0643416E3,3.2118361E4,1.4021417E3,1.2532314E3,3.6710277E4,-5.898447E3,4.9587026E3,9.429667E3,2.079849E4,1.0917393E5,4.2416824E4,-1.2202206E3,-3.632461E4,2.3102876E3,1.1730943E4,7.78236E4,2.1481469E4,4.079589E4,-2.9663701E4,5.233618E4,1.3518447E5,-2.9630021E4,3.7572676E4,6.650575E4,1.336993E4,8.681773E4,1.5922726E4,6.085309E4,1.6932327E5,8.853066E4,2.865618E4,-1.7820619E5,1.3872066E5,5.0568227E4,2.3504469E5,8.1927E3,1.4734125E5],"split_indices":[5,5,5,5,5,5,0,5,5,0,3,3,2,5,0,5,0,1,0,3,6,5,0,5,0,0,0,0,0,0,0,5,0,5,6,2,0,3,2,5,0,0,2,0,0,3,0,3,1,8,2,0,0,1,0,0,0,0,0,0,0,0,0,0,0,0,0,0,0,0,0,0,0,0,0,0,0,0,0,0,0,0,0,0,0,0,0,0,0,0,0,0,0,0,0,0,0,0,0,0,0],"split_type":[0,0,0,0,0,0,0,0,0,0,0,0,0,0,0,0,0,0,0,0,0,0,0,0,0,0,0,0,0,0,0,0,0,0,0,0,0,0,0,0,0,0,0,0,0,0,0,0,0,0,0,0,0,0,0,0,0,0,0,0,0,0,0,0,0,0,0,0,0,0,0,0,0,0,0,0,0,0,0,0,0,0,0,0,0,0,0,0,0,0,0,0,0,0,0,0,0,0,0,0,0],"sum_hessian":[7.125E3,6.889E3,2.36E2,5.585E3,1.304E3,1.5E2,8.6E1,3.104E3,2.481E3,1.01E3,2.94E2,1.04E2,4.6E1,4E0,8.2E1,1.169E3,1.935E3,1.204E3,1.277E3,3.05E2,7.05E2,1.91E2,1.03E2,9E1,1.4E1,2.7E1,1.9E1,2E0,2E0,6E1,2.2E1,3.91E2,7.78E2,7.65E2,1.17E3,1.189E3,1.5E1,9.38E2,3.39E2,2.98E2,7E0,6.5E1,6.4E2,1.17E2,7.4E1,8.5E1,1.8E1,5.4E1,3.6E1,7E0,7E0,3.6E1,2.4E1,1.6E1,6E0,1.68E2,2.23E2,1.93E2,5.85E2,5.03E2,2.62E2,4.93E2,6.77E2,8.82E2,3.07E2,7E0,8E0,9.26E2,1.2E1,2.66E2,7.3E1,1.56E2,1.42E2,2E0,5E0,5.5E1,1E1,2.93E2,3.47E2,2E0,1.15E2,7.3E1,1E0,8.2E1,3E0,4E0,1.4E1,4.8E1,6E0,3.5E1,1E0,3E0,4E0,4E0,3E0,1E0,2.3E1,1E0,1.5E1,2E0,4E0],"tree_param":{"num_deleted":"0","num_feature":"10","num_nodes":"101","size_leaf_vector":"1"}},{"base_weights":[1.3992747E3,-8.644488E3,2.9338294E5,-2.3171256E4,2.5006125E4,2.137151E5,4.2828475E5,-3.5459836E4,-1.4308871E4,1.4588133E4,8.792373E4,1.6711856E5,2.4607211E5,9.092521E5,3.9415075E5,-4.3129863E4,-3.1418453E4,-1.0308564E4,-2.5139533E4,9.086154E3,3.6026934E4,7.564605E4,1.480189E5,1.9466075E5,6.233384E4,2.3188466E5,1.4474712E5,1.1599196E5,3.3863412E5,5.311048E5,3.6112922E5,-1.3992553E4,-4.0707773E4,-1.8135463E4,-3.2678959E4,-1.8550918E4,9.5678485E2,-3.4036043E4,-1.290123E4,-3.6709824E3,1.5679672E4,4.0201055E4,-1.9497888E3,5.8347996E4,1.15297586E5,3.934973E5,9.773686E4,1.7043475E5,3.4795E5,-6.2766027E4,1.2020522E5,4.8457414E4,2.5424586E5,1.7279822E5,2.7488306E5,2.7499575E5,4.1885444E5,-1.0513733E4,-1.2589402E4,-2.1575027E4,-4.6785806E3,-1.0084377E4,-4.360499E3,2.7251821E3,-6.839032E3,1.5241407E4,-7.274867E2,-1.0807158E4,-7.770233E2,-6.3667554E3,2.1286684E2,-1.4846672E2,-1.9397348E4,2.606429E4,3.1343723E3,1.0358448E4,3.0649346E4,6.2498445E4,-5.9753716E3,6.021326E3,1.9390678E4,1.1249418E4,4.1890492E4,2.1704477E4,2.0896778E5,4.9831555E4,1.1861873E4,5.845076E4,9.05251E3,-8.559226E3,1.28685695E5,5.3539766E4,1.3431719E4,9.465511E4,5.8352207E4,-1.4209388E4,1.1942615E5,2.9505291E4,9.672576E4,1.045032E5,1.8690567E5],"categories":[],"categories_nodes":[],"categories_segments":[],"categories_sizes":[],"default_left":[0,0,0,0,0,0,0,0,0,0,0,0,0,0,0,0,0,0,0,0,0,0,0,0,0,0,0,0,0,0,0,0,0,0,0,0,0,0,0,0,0,0,0,0,0,0,0,0,0,0,0,0,0,0,0,0,0,0,0,0,0,0,0,0,0,0,0,0,0,0,0,0,0,0,0,0,0,0,0,0,0,0,0,0,0,0,0,0,0,0,0,0,0,0,0,0,0,0,0,0,0],"id":7,"left_children":[1,3,5,7,9,11,13,15,17,19,21,23,25,27,29,31,33,35,37,39,41,43,45,47,49,51,-1,-1,-1,53,55,-1,57,59,61,63,65,67,69,71,73,75,77,79,81,83,85,87,89,-1,91,-1,93,-1,95,97,99,-1,-1,-1,-1,-1,-1,-1,-1,-1,-1,-1,-1,-1,-1,-1,-1,-1,-1,-1,-1,-1,-1,-1,-1,-1,-1,-1,-1,-1,-1,-1,-1,-1,-1,-1,-1,-1,-1,-1,-1,-1,-1,-1,-1],"loss_changes":[2.0900347E13,3.3686498E12,2.4555867E12,5.2365807E11,1.3607947E12,1.8654324E11,1.06992606E12,6.113565E10,1.2096681E11,2.1010583E11,2.0646252E11,1.7545612E11,1.7993092E11,1.37209315E11,1.8356581E11,3.9962542E9,2.157563E10,1.8990213E11,8.16551E10,1.1958413E11,5.7779454E10,1.6268853E11,5.663555E11,1.3009014E11,2.6087735E11,9.109294E10,0E0,0E0,0E0,2.6916946E9,2.3286147E11,0E0,1.5039857E9,1.4862385E10,2.0018364E10,1.3877805E11,1.4593855E11,2.7160543E10,3.6144755E10,9.391246E10,3.481326E11,1.11768306E11,1.439465E11,4.0579236E10,1.34878265E11,7.2822974E11,1.6054393E11,1.515554E11,1.9521307E11,0E0,4.9141596E10,0E0,1.6556517E11,0E0,1.776642E11,2.2798008E11,3.5880383E11,0E0,0E0,0E0,0E0,0E0,0E0,0E0,0E0,0E0,0E0,0E0,0E0,0E0,0E0,0E0,0E0,0E0,0E0,0E0,0E0,0E0,0E0,0E0,0E0,0E0,0E0,0E0,0E0,0E0,0E0,0E0,0E0,0E0,0E0,0E0,0E0,0E0,0E0,0E0,0E0,0E0,0E0,0E0,0E0],"parents":[2147483647,0,0,1,1,2,2,3,3,4,4,5,5,6,6,7,7,8,8,9,9,10,10,11,11,12,12,13,13,14,14,15,15,16,16,17,17,18,18,19,19,20,20,21,21,22,22,23,23,24,24,25,25,29,29,30,30,32,32,33,33,34,34,35,35,36,36,37,37,38,38,39,39,40,40,41,41,42,42,43,43,44,44,45,45,46,46,47,47,48,48,50,50,52,52,54,54,55,55,56,56],"right_children":[2,4,6,8,10,12,14,16,18,20,22,24,26,28,30,32,34,36,38,40,42,44,46,48,50,52,-1,-1,-1,54,56,-1,58,60,62,64,66,68,70,72,74,76,78,80,82,84,86,88,90,-1,92,-1,94,-1,96,98,100,-1,-1,-1,-1,-1,-1,-1,-1,-1,-1,-1,-1,-1,-1,-1,-1,-1,-1,-1,-1,-1,-1,-1,-1,-1,-1,-1,-1,-1,-1,-1,-1,-1,-1,-1,-1,-1,-1,-1,-1,-1,-1,-1,-1],"split_conditions":[2.2997368E6,5.6E5,3.975E6,2.5381481E5,1.115E6,2.6751668E6,6.55E3,1.343E5,9.3E4,8.35E5,1.71E2,4.7564E4,7.2E4,5.15E6,1.799E3,7.48793E4,1E0,1E0,1.298E3,1E0,1.03921E5,1.6537499E6,2.3E4,2.199E3,5.07E4,1.43E1,1.4474712E5,1.1599196E5,3.3863412E5,3.04E4,5.4636365E6,-1.3992553E4,5.07E4,7.99E2,2.31E1,1.5E4,1.537E1,2.52E1,1.91E1,7.7E4,2.44E4,1.2632E2,1E0,1E0,3.04E4,1.15E1,1.6537499E6,1.687E2,1E0,-6.2766027E4,2.199E3,4.8457414E4,2.8E4,1.7279822E5,4.1E4,1.943E2,1.85E4,-1.0513733E4,-1.2589402E4,-2.1575027E4,-4.6785806E3,-1.0084377E4,-4.360499E3,2.7251821E3,-6.839032E3,1.5241407E4,-7.274867E2,-1.0807158E4,-7.770233E2,-6.3667554E3,2.1286684E2,-1.4846672E2,-1.9397348E4,2.606429E4,3.1343723E3,1.0358448E4,3.0649346E4,6.2498445E4,-5.9753716E3,6.021326E3,1.9390678E4,1.1249418E4,4.1890492E4,2.1704477E4,2.0896778E5,4.9831555E4,1.1861873E4,5.845076E4,9.05251E3,-8.559226E3,1.28685695E5,5.3539766E4,1.3431719E4,9.465511E4,5.8352207E4,-1.4209388E4,1.1942615E5,2.9505291E4,9.672576E4,1.045032E5,1.8690567E5],"split_indices":[5,5,5,5,5,5,0,5,0,5,3,0,0,5,2,5,8,6,2,6,0,5,0,2,0,1,0,0,0,0,5,0,0,2,1,0,1,1,1,0,0,3,8,6,0,1,5,3,8,0,2,0,0,0,0,3,0,0,0,0,0,0,0,0,0,0,0,0,0,0,0,0,0,0,0,0,0,0,0,0,0,0,0,0,0,0,0,0,0,0,0,0,0,0,0,0,0,0,0,0,0],"split_type":[0,0,0,0,0,0,0,0,0,0,0,0,0,0,0,0,0,0,0,0,0,0,0,0,0,0,0,0,0,0,0,0,0,0,0,0,0,0,0,0,0,0,0,0,0,0,0,0,0,0,0,0,0,0,0,0,0,0,0,0,0,0,0,0,0,0,0,0,0,0,0,0,0,0,0,0,0,0,0,0,0,0,0,0,0,0,0,0,0,0,0,0,0,0,0,0,0,0,0,0,0],"sum_hessian":[7.125E3,6.889E3,2.36E2,4.812E3,2.077E3,1.5E2,8.6E1,2.015E3,2.797E3,1.783E3,2.94E2,6.4E1,8.6E1,4E0,8.2E1,6.92E2,1.323E3,2.044E3,7.53E2,1.42E3,3.63E2,2.46E2,4.8E1,5E1,1.4E1,8.3E1,3E0,2E0,2E0,1.3E1,6.9E1,2.75E2,4.17E2,1.16E2,1.207E3,1.18E3,8.64E2,4.35E2,3.18E2,4.84E2,9.36E2,3.27E2,3.6E1,1.73E2,7.3E1,7E0,4.1E1,4.5E1,5E0,2E0,1.2E1,2.2E1,6.1E1,1E1,3E0,3E1,3.9E1,8.1E1,3.36E2,4E0,1.12E2,1.147E3,6E1,1.57E2,1.023E3,5.4E1,8.1E2,4.09E2,2.6E1,1.97E2,1.21E2,4.61E2,2.3E1,6.3E1,8.73E2,3.01E2,2.6E1,2E0,3.4E1,2.5E1,1.48E2,1.8E1,5.5E1,4E0,3E0,1.8E1,2.3E1,3.8E1,7E0,1E0,4E0,6E0,6E0,2.8E1,3.3E1,1E0,2E0,7E0,2.3E1,3.1E1,8E0],"tree_param":{"num_deleted":"0","num_feature":"10","num_nodes":"101","size_leaf_vector":"1"}},{"base_weights":[1.271564E3,-5.9941064E3,2.1249181E5,-1.194899E4,3.599622E4,1.5316378E5,3.13021E5,-2.0563797E4,6.219149E2,2.4387416E4,7.655977E4,1.3338486E5,1.9409194E5,7.274017E5,2.8428697E5,-2.3620352E4,-1.1281609E4,7.6684673E3,-4.5023867E3,4.041577E4,1.1254552E4,6.931941E4,1.8807853E5,1.176829E5,2.1975114E5,1.5654472E5,2.6375638E5,9.2793555E4,2.709073E5,4.0453547E5,2.6029712E5,-1.6379353E4,-2.7481137E4,-1.1719732E4,8.858306E4,6.2176094E3,1.9296378E5,-6.385331E2,-2.4116145E4,1.5288808E4,5.1807254E4,-2.548597E4,1.9818371E4,7.1460984E4,-8.0854086E4,1.650008E5,9.688586E4,1.0022111E5,1.553619E5,2.5851297E5,1.18522875E5,1.7460677E5,2.04759E4,6.6508234E4,1.278942E5,4.6024203E4,1.685975E5,2.2898327E5,3.4813703E5,-1.0314373E4,-3.7745444E3,-5.6887803E3,-8.852143E3,-3.8666907E3,6.2833027E3,9.143297E2,3.482367E4,2.0406615E3,-4.349796E4,-4.942788E3,7.9656914E4,7.23824E3,-9.633095E2,-2.088736E4,-4.4813594E3,6.682938E3,-8.0192773E3,5.2063113E4,1.3803638E4,-3.024872E4,1.0062624E4,1.6269426E4,1.0580543E3,1.7504768E4,2.7543934E4,-4.886625E3,-3.1497713E4,8.044606E4,-1.8595453E4,3.725975E4,-8.634034E3,5.6506145E4,1.6038582E4,4.7755562E4,9.780111E4,3.3816377E3,4.131558E4,8.583536E4,3.5550508E4,-6.538875E2,1.6664701E4,7.940983E4,4.852615E4,1.3395519E5,4.3141703E4],"categories":[],"categories_nodes":[],"categories_segments":[],"categories_sizes":[],"default_left":[0,0,0,0,0,0,0,0,0,0,0,0,0,0,0,0,0,0,0,0,0,0,0,0,0,0,0,0,0,0,0,0,0,0,0,0,0,0,0,0,0,0,0,0,0,0,0,0,0,0,0,0,0,0,0,0,0,0,0,0,0,0,0,0,0,0,0,0,0,0,0,0,0,0,0,0,0,0,0,0,0,0,0,0,0,0,0,0,0,0,0,0,0,0,0,0,0,0,0,0,0,0,0,0,0],"id":8,"left_children":[1,3,5,7,9,11,13,15,17,19,21,23,25,27,29,31,33,35,37,39,41,43,45,47,49,51,53,-1,-1,55,57,59,61,63,65,67,69,71,73,75,77,79,81,83,85,-1,87,89,91,93,95,97,99,-1,-1,-1,-1,101,103,-1,-1,-1,-1,-1,-1,-1,-1,-1,-1,-1,-1,-1,-1,-1,-1,-1,-1,-1,-1,-1,-1,-1,-1,-1,-1,-1,-1,-1,-1,-1,-1,-1,-1,-1,-1,-1,-1,-1,-1,-1,-1,-1,-1,-1,-1],"loss_changes":[1.0937238E13,1.7232575E12,1.365571E12,6.5357867E11,4.0121834E11,9.634788E10,8.291033E11,1.01331894E11,8.8681275E10,1.3994744E11,1.4037549E11,1.1653179E11,8.164842E10,8.781431E10,1.3413384E11,7.4835165E10,3.993459E10,2.767779E11,1.0775044E11,8.507795E10,1.16292305E11,6.3667438E10,3.0976567E11,4.4302205E10,2.8217246E10,7.752824E10,8.0518185E9,0E0,0E0,3.8827013E11,1.18326034E11,6.376014E10,2.9729227E10,3.4108097E10,9.05368E9,9.177014E10,1.2594905E11,7.582925E10,9.669911E10,2.8489298E10,1.373434E11,3.1469693E11,1.6744037E11,4.214253E10,2.9652972E9,0E0,2.887156E11,2.046323E11,8.070083E10,1.5142027E10,1.0800161E10,1.4752829E11,4.0940733E9,0E0,0E0,0E0,0E0,9.164974E10,2.7752517E11,0E0,0E0,0E0,0E0,0E0,0E0,0E0,0E0,0E0,0E0,0E0,0E0,0E0,0E0,0E0,0E0,0E0,0E0,0E0,0E0,0E0,0E0,0E0,0E0,0E0,0E0,0E0,0E0,0E0,0E0,0E0,0E0,0E0,0E0,0E0,0E0,0E0,0E0,0E0,0E0,0E0,0E0,0E0,0E0,0E0,0E0],"parents":[2147483647,0,0,1,1,2,2,3,3,4,4,5,5,6,6,7,7,8,8,9,9,10,10,11,11,12,12,13,13,14,14,15,15,16,16,17,17,18,18,19,19,20,20,21,21,22,22,23,23,24,24,25,25,26,26,29,29,30,30,31,31,32,32,33,33,34,34,35,35,36,36,37,37,38,38,39,39,40,40,41,41,42,42,43,43,44,44,46,46,47,47,48,48,49,49,50,50,51,51,52,52,57,57,58,58],"right_children":[2,4,6,8,10,12,14,16,18,20,22,24,26,28,30,32,34,36,38,40,42,44,46,48,50,52,54,-1,-1,56,58,60,62,64,66,68,70,72,74,76,78,80,82,84,86,-1,88,90,92,94,96,98,100,-1,-1,-1,-1,102,104,-1,-1,-1,-1,-1,-1,-1,-1,-1,-1,-1,-1,-1,-1,-1,-1,-1,-1,-1,-1,-1,-1,-1,-1,-1,-1,-1,-1,-1,-1,-1,-1,-1,-1,-1,-1,-1,-1,-1,-1,-1,-1,-1,-1,-1,-1],"split_conditions":[2.2997368E6,7.8046156E5,3.975E6,4.2874994E5,1.3742858E6,3.2E6,6.55E3,2.007E1,5E4,4.7564E4,1.9E2,1.9E2,1E0,5.15E6,1.537E1,1.933E1,4.268E5,1.38E2,1E0,1E0,5.7E4,1.5E5,1.85E4,4.6957E4,4.45E4,1.9E2,5.07E4,9.2793555E4,2.709073E5,1.299E1,2.05E4,9.99E2,1E0,2.621E1,3.04E4,1.237E2,1.32E1,1.36E1,1.701E1,3.04E4,5.621E3,8.25E1,7.2E4,1.7625E6,1.5604E5,1.650008E5,1.26E1,3.6E4,8E4,1E0,5.2E4,2.3E4,2.3E4,6.6508234E4,1.278942E5,4.6024203E4,1.685975E5,1.02E4,3.04E4,-1.0314373E4,-3.7745444E3,-5.6887803E3,-8.852143E3,-3.8666907E3,6.2833027E3,9.143297E2,3.482367E4,2.0406615E3,-4.349796E4,-4.942788E3,7.9656914E4,7.23824E3,-9.633095E2,-2.088736E4,-4.4813594E3,6.682938E3,-8.0192773E3,5.2063113E4,1.3803638E4,-3.024872E4,1.0062624E4,1.6269426E4,1.0580543E3,1.7504768E4,2.7543934E4,-4.886625E3,-3.1497713E4,8.044606E4,-1.8595453E4,3.725975E4,-8.634034E3,5.6506145E4,1.6038582E4,4.7755562E4,9.780111E4,3.3816377E3,4.131558E4,8.583536E4,3.5550508E4,-6.538875E2,1.6664701E4,7.940983E4,4.852615E4,1.3395519E5,4.3141703E4],"split_indices":[5,5,5,5,5,5,0,1,0,0,3,3,8,5,1,1,5,3,7,6,0,0,0,0,0,3,0,0,0,1,0,2,8,1,0,3,1,1,1,0,0,3,0,5,0,0,1,0,0,8,0,0,0,0,0,0,0,0,0,0,0,0,0,0,0,0,0,0,0,0,0,0,0,0,0,0,0,0,0,0,0,0,0,0,0,0,0,0,0,0,0,0,0,0,0,0,0,0,0,0,0,0,0,0,0],"split_type":[0,0,0,0,0,0,0,0,0,0,0,0,0,0,0,0,0,0,0,0,0,0,0,0,0,0,0,0,0,0,0,0,0,0,0,0,0,0,0,0,0,0,0,0,0,0,0,0,0,0,0,0,0,0,0,0,0,0,0,0,0,0,0,0,0,0,0,0,0,0,0,0,0,0,0,0,0,0,0,0,0,0,0,0,0,0,0,0,0,0,0,0,0,0,0,0,0,0,0,0,0,0,0,0,0],"sum_hessian":[7.125E3,6.889E3,2.36E2,6.034E3,8.55E2,1.5E2,8.6E1,3.58E3,2.454E3,6.66E2,1.89E2,1.04E2,4.6E1,4E0,8.2E1,2.692E3,8.88E2,1.033E3,1.421E3,2.99E2,3.67E2,1.79E2,1E1,9E1,1.4E1,3.2E1,1.4E1,2E0,2E0,1.1E1,7.1E1,9.38E2,1.754E3,8.85E2,3E0,1.026E3,7E0,1.188E3,2.33E2,9.4E1,2.05E2,6.9E1,2.98E2,1.77E2,2E0,1E0,9E0,6.4E1,2.6E1,9E0,5E0,2.8E1,4E0,1.3E1,1E0,5E0,6E0,5.5E1,1.6E1,1.62E2,7.76E2,3.39E2,1.415E3,8.55E2,3E1,1E0,2E0,1.023E3,3E0,2E0,5E0,1.11E2,1.077E3,3.8E1,1.95E2,8.1E1,1.3E1,8E0,1.97E2,3E1,3.9E1,9.5E1,2.03E2,1.1E2,6.7E1,1E0,1E0,4E0,5E0,5.4E1,1E1,1.9E1,7E0,5E0,4E0,1E0,4E0,8E0,2E1,3E0,1E0,3.4E1,2.1E1,1E1,6E0],"tree_param":{"num_deleted":"0","num_feature":"10","num_nodes":"105","size_leaf_vector":"1"}},{"base_weights":[1.1465419E3,-4.9343247E3,1.3531548E5,-1.1343705E4,1.1722521E4,9.8054484E4,2.2926819E5,-1.6904465E4,-5.592292E3,6.907062E3,3.4045125E4,7.515824E4,1.3298244E5,5.819212E5,2.0526177E5,-2.1164148E4,-1.3776075E4,4.8393755E3,-9.692158E3,5.12288E2,1.5858957E4,6.3025062E4,2.5331664E4,1.1685372E5,4.212123E4,1.2213095E5,9.828538E4,7.4234805E4,2.167258E5,3.0105997E5,1.8644453E5,-1.6679195E4,-2.2900775E4,-1.1963599E4,-2.3112648E4,-3.8704756E3,4.129171E4,-1.370257E4,-1.2687462E3,6.1221258E4,-8.4947394E2,8.560163E3,4.1909855E4,5.155165E4,1.4025069E5,5.361357E4,1.7126332E4,8.426619E4,3.9609716E5,3.3363875E3,8.082052E4,6.68553E4,1.3415381E5,3.4518164E4,1.2524385E5,1.625728E5,2.5411348E5,-6.1901885E3,-2.4692334E3,-6.5717437E3,-1.4730265E4,-3.935932E3,-2.4317062E2,-7.5412134E3,7.741891E2,1.3595815E4,-1.5415802E3,1.014791E4,5.093074E4,2.1871824E3,-5.095621E3,5.715619E3,-1.4940535E3,9.204152E3,2.854197E4,6.1676647E1,-2.3471363E4,1.5682202E4,1.1999811E3,4.0492285E4,8.451989E3,2.7224322E4,1.0779766E4,1.9372512E4,-6.8902407E3,6.2628384E3,-5.239351E4,1.8001611E4,4.98601E4,2.3121727E5,5.010808E4,-3.3237566E4,1.3521663E4,-1.8333938E4,3.104717E4,4.1718188E4,1.6095353E4,4.9270848E4,3.310132E4,1.3476625E4,5.196791E4,9.7422E4,3.2048113E4],"categories":[],"categories_nodes":[],"categories_segments":[],"categories_sizes":[],"default_left":[0,0,0,0,0,0,0,0,0,0,0,0,0,0,0,0,0,0,0,0,0,0,0,0,0,0,0,0,0,0,0,0,0,0,0,0,0,0,0,0,0,0,0,0,0,0,0,0,0,0,0,0,0,0,0,0,0,0,0,0,0,0,0,0,0,0,0,0,0,0,0,0,0,0,0,0,0,0,0,0,0,0,0,0,0,0,0,0,0,0,0,0,0,0,0,0,0,0,0,0,0,0,0],"id":9,"left_children":[1,3,5,7,9,11,13,15,17,19,21,23,25,27,29,31,33,35,37,39,41,43,45,47,49,51,-1,-1,-1,53,55,57,59,61,63,65,67,69,71,73,75,77,79,81,-1,83,85,87,89,91,93,95,97,-1,-1,99,101,-1,-1,-1,-1,-1,-1,-1,-1,-1,-1,-1,-1,-1,-1,-1,-1,-1,-1,-1,-1,-1,-1,-1,-1,-1,-1,-1,-1,-1,-1,-1,-1,-1,-1,-1,-1,-1,-1,-1,-1,-1,-1,-1,-1,-1,-1],"loss_changes":[5.81451E12,7.280232E11,1.05925784E12,1.5738588E11,2.0346523E11,1.6834259E11,6.170901E11,3.3063305E10,1.0363208E11,8.929461E10,8.324868E10,1.8379466E11,1.4373893E11,5.6201052E10,9.348946E10,7.8584873E9,2.4193155E10,2.17326E11,5.87284E10,7.536543E10,1.2323237E11,3.33236E11,5.9418018E10,5.1261374E11,1.1680416E11,4.6855225E10,0E0,0E0,0E0,2.1181216E11,7.49952E10,9.820209E9,1.8736185E10,1.5630811E10,1.2238012E10,3.4728407E10,1.2086228E11,8.130816E10,4.2480525E10,1.7799078E10,7.284756E10,1.0125751E11,1.7772798E11,4.326695E10,0E0,5.0170675E10,1.496239E11,9.935546E10,3.8616367E11,1.9552313E11,1.3181267E11,8.747172E9,3.0596661E10,0E0,0E0,6.2408622E10,1.421485E11,0E0,0E0,0E0,0E0,0E0,0E0,0E0,0E0,0E0,0E0,0E0,0E0,0E0,0E0,0E0,0E0,0E0,0E0,0E0,0E0,0E0,0E0,0E0,0E0,0E0,0E0,0E0,0E0,0E0,0E0,0E0,0E0,0E0,0E0,0E0,0E0,0E0,0E0,0E0,0E0,0E0,0E0,0E0,0E0,0E0,0E0],"parents":[2147483647,0,0,1,1,2,2,3,3,4,4,5,5,6,6,7,7,8,8,9,9,10,10,11,11,12,12,13,13,14,14,15,15,16,16,17,17,18,18,19,19,20,20,21,21,22,22,23,23,24,24,25,25,29,29,30,30,31,31,32,32,33,33,34,34,35,35,36,36,37,37,38,38,39,39,40,40,41,41,42,42,43,43,45,45,46,46,47,47,48,48,49,49,50,50,51,51,52,52,55,55,56,56],"right_children":[2,4,6,8,10,12,14,16,18,20,22,24,26,28,30,32,34,36,38,40,42,44,46,48,50,52,-1,-1,-1,54,56,58,60,62,64,66,68,70,72,74,76,78,80,82,-1,84,86,88,90,92,94,96,98,-1,-1,100,102,-1,-1,-1,-1,-1,-1,-1,-1,-1,-1,-1,-1,-1,-1,-1,-1,-1,-1,-1,-1,-1,-1,-1,-1,-1,-1,-1,-1,-1,-1,-1,-1,-1,-1,-1,-1,-1,-1,-1,-1,-1,-1,-1,-1,-1,-1],"split_conditions":[1.7625E6,5.756666E5,3.975E6,2.9928572E5,1E6,2.6751668E6,6.55E3,1.7E5,4E4,1.298E3,2.05E4,3.6E4,7.2E4,5.15E6,1.537E1,6.706E1,1.136E5,1E0,2.036E1,2E3,8.315713E5,1.745E2,1.481E1,3.04E4,2.148E3,9.599E3,9.828538E4,7.4234805E4,2.167258E5,1.299E1,2.05E4,1.391126E5,1.6776712E5,8.25E1,2.308E1,3.564E3,5.6E5,1.4E1,2.089E1,7.095238E5,9.518182E5,1.85E4,8.35E5,1.71E1,1.4025069E5,1.5E5,1.9E2,1.71E2,1.95E6,1.849E1,5.2132E4,3.564E3,2.8E4,3.4518164E4,1.2524385E5,5.15E6,3.04E4,-6.1901885E3,-2.4692334E3,-6.5717437E3,-1.4730265E4,-3.935932E3,-2.4317062E2,-7.5412134E3,7.741891E2,1.3595815E4,-1.5415802E3,1.014791E4,5.093074E4,2.1871824E3,-5.095621E3,5.715619E3,-1.4940535E3,9.204152E3,2.854197E4,6.1676647E1,-2.3471363E4,1.5682202E4,1.1999811E3,4.0492285E4,8.451989E3,2.7224322E4,1.0779766E4,1.9372512E4,-6.8902407E3,6.2628384E3,-5.239351E4,1.8001611E4,4.98601E4,2.3121727E5,5.010808E4,-3.3237566E4,1.3521663E4,-1.8333938E4,3.104717E4,4.1718188E4,1.6095353E4,4.9270848E4,3.310132E4,1.3476625E4,5.196791E4,9.7422E4,3.2048113E4],"split_indices":[5,5,5,5,5,5,0,5,0,2,0,0,0,5,1,3,0,6,1,0,5,3,1,0,2,0,0,0,0,1,0,5,5,3,1,0,5,1,1,5,5,0,5,1,0,0,3,3,5,1,0,0,0,0,0,5,0,0,0,0,0,0,0,0,0,0,0,0,0,0,0,0,0,0,0,0,0,0,0,0,0,0,0,0,0,0,0,0,0,0,0,0,0,0,0,0,0,0,0,0,0,0,0],"split_type":[0,0,0,0,0,0,0,0,0,0,0,0,0,0,0,0,0,0,0,0,0,0,0,0,0,0,0,0,0,0,0,0,0,0,0,0,0,0,0,0,0,0,0,0,0,0,0,0,0,0,0,0,0,0,0,0,0,0,0,0,0,0,0,0,0,0,0,0,0,0,0,0,0,0,0,0,0,0,0,0,0,0,0,0,0,0,0,0,0,0,0,0,0,0,0,0,0,0,0,0,0,0,0],"sum_hessian":[7.125E3,6.817E3,3.08E2,4.923E3,1.894E3,2.22E2,8.6E1,2.502E3,2.421E3,1.559E3,3.35E2,1.36E2,8.6E1,4E0,8.2E1,1.057E3,1.445E3,6.83E2,1.738E3,9.1E2,6.49E2,7.6E1,2.59E2,5.9E1,7.7E1,8.3E1,3E0,2E0,2E0,1.1E1,7.1E1,2.98E2,7.59E2,1.212E3,2.33E2,5.52E2,1.31E2,1.177E3,5.61E2,1.9E1,8.91E2,5.08E2,1.41E2,7.5E1,1E0,5.7E1,2.02E2,5.4E1,5E0,3.9E1,3.8E1,1.6E1,6.7E1,5E0,6E0,5.5E1,1.6E1,2.02E2,9.6E1,7.33E2,2.6E1,1.098E3,1.14E2,2.16E2,1.7E1,1.3E1,5.39E2,1.25E2,6E0,1.59E2,1.018E3,8.6E1,4.75E2,1.1E1,8E0,8.8E2,1.1E1,4.7E1,4.61E2,1.7E1,1.24E2,2E1,5.5E1,5E1,7E0,1.99E2,3E0,4.3E1,1.1E1,1E0,4E0,1E1,2.9E1,5E0,3.3E1,1E0,1.5E1,2.7E1,4E1,5E0,5E1,1E1,6E0],"tree_param":{"num_deleted":"0","num_feature":"10","num_nodes":"103","size_leaf_vector":"1"}},{"base_weights":[1.0109152E3,-2.8682375E3,1.1378033E5,-5.122397E3,2.651972E4,1.0857642E5,2.0128545E5,-1.0124743E4,1.4785686E3,2.1925355E4,5.6830168E4,8.184023E4,1.5425769E5,-5.8008584E3,-1.2782874E4,1.9249178E3,-6.3014492E4,6.5732007E3,3.0442834E4,1.8990394E5,1.5771434E4,7.626038E4,1.7204739E5,2.3696677E5,1.3764316E5,-1.8928499E3,-1.4772715E4,-1.1420034E4,-2.4443104E4,5.0856055E3,-4.4124136E3,-7.245414E4,1.6034879E4,-3.642806E3,4.722519E4,2.457746E4,7.581618E4,3.3855715E3,3.1387334E5,-2.056439E5,3.949546E4,8.0705445E4,-6.3453523E4,8.537594E4,4.7606676E4,8.6295414E4,9.6104836E4,2.0404036E5,1.18749805E5,-1.1030912E3,7.6971084E3,-4.177173E3,-1.5624623E4,-2.0824678E3,-4.6384277E3,-6.452068E3,-1.3879876E4,1.0498911E3,1.5789671E4,-1.4400585E3,5.2386676E4,6.8336626E3,-2.5734588E4,4.64043E3,-1.0267198E4,-3.0559314E4,2.0051127E4,2.9615857E4,6.399512E3,7.1155734E4,-3.6963162E3,1.9732342E4,-1.7954916E4,1.2744557E5,5.627929E4,5.3165625E3,-7.977475E4,2.8263625E4,-7.3433286E3,2.2439293E4,4.295642E4,-2.3341E3,-2.9392662E4,2.2460775E4,-9.216544E3,1.139215E4,3.0288826E4,-3.1159502E3,6.602955E4,-1.8632113E4,4.0896164E4],"categories":[],"categories_nodes":[],"categories_segments":[],"categories_sizes":[],"default_left":[0,0,0,0,0,0,0,0,0,0,0,0,0,0,0,0,0,0,0,0,0,0,0,0,0,0,0,0,0,0,0,0,0,0,0,0,0,0,0,0,0,0,0,0,0,0,0,0,0,0,0,0,0,0,0,0,0,0,0,0,0,0,0,0,0,0,0,0,0,0,0,0,0,0,0,0,0,0,0,0,0,0,0,0,0,0,0,0,0,0,0],"id":10,"left_children":[1,3,5,7,9,11,-1,13,15,17,19,21,23,25,27,29,31,33,35,37,39,41,43,45,47,49,51,53,55,57,59,61,-1,63,65,67,69,71,73,75,77,79,81,-1,83,85,-1,87,89,-1,-1,-1,-1,-1,-1,-1,-1,-1,-1,-1,-1,-1,-1,-1,-1,-1,-1,-1,-1,-1,-1,-1,-1,-1,-1,-1,-1,-1,-1,-1,-1,-1,-1,-1,-1,-1,-1,-1,-1,-1,-1],"loss_changes":[3.1175937E12,4.5656487E11,6.143245E11,2.1134495E11,6.712928E10,2.756127E11,0E0,4.17735E10,7.957184E10,5.5765877E10,3.466907E11,6.2884217E10,8.556197E10,4.8638222E10,3.5539255E10,5.494559E10,2.4760869E10,6.412839E10,7.132281E10,3.4577593E11,2.707652E11,9.4550426E10,9.848727E10,1.3567925E11,6.8600726E10,4.7673774E10,1.2607218E10,3.6453188E10,1.4063141E10,1.378115E11,6.4224498E10,2.480046E10,0E0,7.2999215E10,9.7450115E10,5.6852644E10,4.438252E11,3.1552844E10,4.639215E10,7.202595E10,1.6332441E11,4.096878E10,8.847473E9,0E0,1.2977302E10,4.1854976E8,0E0,5.3935407E10,1.9913389E11,0E0,0E0,0E0,0E0,0E0,0E0,0E0,0E0,0E0,0E0,0E0,0E0,0E0,0E0,0E0,0E0,0E0,0E0,0E0,0E0,0E0,0E0,0E0,0E0,0E0,0E0,0E0,0E0,0E0,0E0,0E0,0E0,0E0,0E0,0E0,0E0,0E0,0E0,0E0,0E0,0E0,0E0],"parents":[2147483647,0,0,1,1,2,2,3,3,4,4,5,5,7,7,8,8,9,9,10,10,11,11,12,12,13,13,14,14,15,15,16,16,17,17,18,18,19,19,20,20,21,21,22,22,23,23,24,24,25,25,26,26,27,27,28,28,29,29,30,30,31,31,33,33,34,34,35,35,36,36,37,37,38,38,39,39,40,40,41,41,42,42,44,44,45,45,47,47,48,48],"right_children":[2,4,6,8,10,12,-1,14,16,18,20,22,24,26,28,30,32,34,36,38,40,42,44,46,48,50,52,54,56,58,60,62,-1,64,66,68,70,72,74,76,78,80,82,-1,84,86,-1,88,90,-1,-1,-1,-1,-1,-1,-1,-1,-1,-1,-1,-1,-1,-1,-1,-1,-1,-1,-1,-1,-1,-1,-1,-1,-1,-1,-1,-1,-1,-1,-1,-1,-1,-1,-1,-1,-1,-1,-1,-1,-1,-1],"split_conditions":[2.2997368E6,9.133333E5,8.15E6,4.34378E5,1.71E2,3.975E6,2.0128545E5,1E0,2.91E5,1E0,4E4,1E5,1.537E1,1.136E5,1.1E5,7.8E4,8.315713E5,1.5386E2,1.6537499E6,1.15E1,4.3E4,8E4,1.03921E5,1.299E1,1.71E2,1.999E3,4.1949984E5,1.248E3,2.9928572E5,1.237E2,2.953E3,1E0,1.6034879E4,5.4891E4,5.2132E4,1.3E1,1.298E3,1.9077E4,2.3E4,4.1E4,9.7E4,5.4E4,8.6E4,8.537594E4,1.35E1,1.85E4,9.6104836E4,1E0,5.15E6,-1.1030912E3,7.6971084E3,-4.177173E3,-1.5624623E4,-2.0824678E3,-4.6384277E3,-6.452068E3,-1.3879876E4,1.0498911E3,1.5789671E4,-1.4400585E3,5.2386676E4,6.8336626E3,-2.5734588E4,4.64043E3,-1.0267198E4,-3.0559314E4,2.0051127E4,2.9615857E4,6.399512E3,7.1155734E4,-3.6963162E3,1.9732342E4,-1.7954916E4,1.2744557E5,5.627929E4,5.3165625E3,-7.977475E4,2.8263625E4,-7.3433286E3,2.2439293E4,4.295642E4,-2.3341E3,-2.9392662E4,2.2460775E4,-9.216544E3,1.139215E4,3.0288826E4,-3.1159502E3,6.602955E4,-1.8632113E4,4.0896164E4],"split_indices":[5,5,5,5,3,5,0,7,0,8,0,0,1,0,0,0,5,3,5,1,0,0,0,1,3,2,5,2,5,3,2,8,0,0,0,1,2,0,0,0,0,0,0,0,1,0,0,6,5,0,0,0,0,0,0,0,0,0,0,0,0,0,0,0,0,0,0,0,0,0,0,0,0,0,0,0,0,0,0,0,0,0,0,0,0,0,0,0,0,0,0],"split_type":[0,0,0,0,0,0,0,0,0,0,0,0,0,0,0,0,0,0,0,0,0,0,0,0,0,0,0,0,0,0,0,0,0,0,0,0,0,0,0,0,0,0,0,0,0,0,0,0,0,0,0,0,0,0,0,0,0,0,0,0,0,0,0,0,0,0,0,0,0,0,0,0,0,0,0,0,0,0,0,0,0,0,0,0,0,0,0,0,0,0,0],"sum_hessian":[7.125E3,6.889E3,2.36E2,6.399E3,4.9E2,2.35E2,1E0,3.64E3,2.759E3,4.27E2,6.3E1,1.5E2,8.5E1,1.387E3,2.253E3,2.741E3,1.8E1,1.53E2,2.74E2,1.4E1,4.9E1,1.43E2,7E0,1.2E1,7.3E1,9.67E2,4.2E2,2.019E3,2.34E2,1.829E3,9.12E2,1.7E1,1E0,1.23E2,3E1,2.44E2,3E1,6E0,8E0,4E0,4.5E1,1.39E2,4E0,3E0,4E0,5E0,7E0,1.4E1,5.9E1,9.09E2,5.8E1,4.12E2,8E0,9.59E2,1.06E3,2.08E2,2.6E1,1.771E3,5.8E1,9.11E2,1E0,2E0,1.5E1,7.6E1,4.7E1,3E0,2.7E1,9E0,2.35E2,1E1,2E1,3E0,3E0,3E0,5E0,1E0,3E0,2.4E1,2.1E1,1.29E2,1E1,2E0,2E0,3E0,1E0,2E0,3E0,1E0,1.3E1,5E0,5.4E1],"tree_param":{"num_deleted":"0","num_feature":"10","num_nodes":"91","size_leaf_vector":"1"}},{"base_weights":[8.199827E2,-1.5738455E3,9.7038836E4,-3.5262698E3,2.2243531E4,9.0971516E4,1.7109262E5,-7.8251396E3,9.192325E2,1.8861557E4,8.184154E4,8.4751266E4,2.8177756E5,3.7861665E3,-9.943767E3,3.306614E4,-1.021533E3,1.822171E1,2.3224254E4,1.3105447E5,-3.6614035E4,6.981949E4,8.065022E4,2.8133025E4,1.1275576E5,2.50613E3,6.5143074E4,-9.342703E3,-3.4372953E4,2.5688363E4,1.2586619E5,-4.6509014E3,5.3837856E3,-1.8454666E4,1.4385687E4,2.66509E4,-3.7797695E4,8.270239E4,1.1324464E5,-1.2455732E5,1.0445441E5,9.0007375E4,5.015522E4,-5.212947E3,1.4808175E3,-2.5568882E3,-6.036829E3,-4.011024E3,-2.9751395E4,1.26348955E4,4.922934E3,7.857255E4,2.430361E3,-9.8680896E2,-1.751285E4,4.727635E3,-3.9906345E2,1.5217028E4,-8.12142E3,-9.390017E2,1.2617819E4,1.1836996E4,3.8642612E3,-3.4309973E4,-5.8093713E2,5.2178402E4,-8.354566E3,-8.604799E3,-9.058959E4,4.1618867E4,2.4435E2,1.2019564E4,2.974158E4,-7.458568E3,1.9117691E4],"categories":[],"categories_nodes":[],"categories_segments":[],"categories_sizes":[],"default_left":[0,0,0,0,0,0,0,0,0,0,0,0,0,0,0,0,0,0,0,0,0,0,0,0,0,0,0,0,0,0,0,0,0,0,0,0,0,0,0,0,0,0,0,0,0,0,0,0,0,0,0,0,0,0,0,0,0,0,0,0,0,0,0,0,0,0,0,0,0,0,0,0,0,0,0],"id":11,"left_children":[1,3,5,7,9,11,-1,13,15,17,19,21,23,25,27,29,31,33,35,37,39,-1,41,-1,-1,43,-1,45,47,49,51,53,55,57,59,61,63,65,-1,67,69,71,73,-1,-1,-1,-1,-1,-1,-1,-1,-1,-1,-1,-1,-1,-1,-1,-1,-1,-1,-1,-1,-1,-1,-1,-1,-1,-1,-1,-1,-1,-1,-1,-1],"loss_changes":[1.6414941E12,3.2345077E11,4.448842E11,1.2285036E11,1.0467793E11,1.80259E11,0E0,8.04305E10,1.9724737E11,4.110346E10,1.680257E11,8.318511E10,5.3184627E10,1.37373975E11,4.0264024E10,1.2000515E11,6.934838E10,2.5479297E10,8.59022E10,2.070871E11,1.2466476E11,0E0,4.2567795E10,0E0,0E0,2.4387381E10,0E0,2.3679238E10,8.849689E10,2.4916804E10,2.0615145E11,1.3908368E11,7.518161E10,2.6408894E10,2.6306748E10,6.738097E10,6.0187337E10,1.8637505E11,0E0,9.339241E10,1.4096093E10,5.303206E10,4.332291E10,0E0,0E0,0E0,0E0,0E0,0E0,0E0,0E0,0E0,0E0,0E0,0E0,0E0,0E0,0E0,0E0,0E0,0E0,0E0,0E0,0E0,0E0,0E0,0E0,0E0,0E0,0E0,0E0,0E0,0E0,0E0,0E0],"parents":[2147483647,0,0,1,1,2,2,3,3,4,4,5,5,7,7,8,8,9,9,10,10,11,11,12,12,13,13,14,14,15,15,16,16,17,17,18,18,19,19,20,20,22,22,25,25,27,27,28,28,29,29,30,30,31,31,32,32,33,33,34,34,35,35,36,36,37,37,39,39,40,40,41,41,42,42],"right_children":[2,4,6,8,10,12,-1,14,16,18,20,22,24,26,28,30,32,34,36,38,40,-1,42,-1,-1,44,-1,46,48,50,52,54,56,58,60,62,64,66,-1,68,70,72,74,-1,-1,-1,-1,-1,-1,-1,-1,-1,-1,-1,-1,-1,-1,-1,-1,-1,-1,-1,-1,-1,-1,-1,-1,-1,-1,-1,-1,-1,-1,-1,-1],"split_conditions":[2.6751668E6,9.25E5,8.15E6,1E0,1.9E2,7.2E4,1.7109262E5,1.6E4,2.6235E4,1E0,7.2E4,5E0,1.35E1,1.599E3,1.598E3,1.055E2,8.25E1,1.497E3,1.77E2,6.0175E4,9.9E4,6.981949E4,3.8E4,2.8133025E4,1.1275576E5,1.17944445E5,6.5143074E4,1.136E5,6.0017856E5,5.745E5,6.11875E5,8.315713E5,7.9328E4,1.3E3,1E0,4.8676E4,1.991E3,3.6E4,1.1324464E5,9.7E4,1.136E5,2.95E6,4.2E4,-5.212947E3,1.4808175E3,-2.5568882E3,-6.036829E3,-4.011024E3,-2.9751395E4,1.26348955E4,4.922934E3,7.857255E4,2.430361E3,-9.8680896E2,-1.751285E4,4.727635E3,-3.9906345E2,1.5217028E4,-8.12142E3,-9.390017E2,1.2617819E4,1.1836996E4,3.8642612E3,-3.4309973E4,-5.8093713E2,5.2178402E4,-8.354566E3,-8.604799E3,-9.058959E4,4.1618867E4,2.4435E2,1.2019564E4,2.974158E4,-7.458568E3,1.9117691E4],"split_indices":[5,5,5,6,3,0,0,0,0,6,0,4,1,2,2,3,3,2,3,0,0,0,0,0,0,5,0,0,5,5,5,5,0,0,8,0,2,0,0,0,0,5,0,0,0,0,0,0,0,0,0,0,0,0,0,0,0,0,0,0,0,0,0,0,0,0,0,0,0,0,0,0,0,0,0],"split_type":[0,0,0,0,0,0,0,0,0,0,0,0,0,0,0,0,0,0,0,0,0,0,0,0,0,0,0,0,0,0,0,0,0,0,0,0,0,0,0,0,0,0,0,0,0,0,0,0,0,0,0,0,0,0,0,0,0,0,0,0,0,0,0,0,0,0,0,0,0,0,0,0,0,0,0],"sum_hessian":[7.125E3,6.953E3,1.72E2,6.427E3,5.26E2,1.71E2,1E0,3.267E3,3.16E3,4.99E2,2.7E1,1.67E2,4E0,5.04E2,2.763E3,1.79E2,2.981E3,9.4E1,4.05E2,1.9E1,8E0,3E0,1.64E2,2E0,2E0,5.02E2,2E0,2.698E3,6.5E1,1.67E2,1.2E1,1.903E3,1.078E3,4.1E1,5.3E1,3.84E2,2.1E1,1.7E1,2E0,5E0,3E0,1.24E2,4E1,5.4E1,4.48E2,2.509E3,1.89E2,5E1,1.5E1,5.9E1,1.08E2,5E0,7E0,1.857E3,4.6E1,4.23E2,6.55E2,4E0,3.7E1,3.3E1,2E1,1.98E2,1.86E2,6E0,1.5E1,9E0,8E0,4E0,1E0,2E0,1E0,2E1,1.04E2,6E0,3.4E1],"tree_param":{"num_deleted":"0","num_feature":"10","num_nodes":"75","size_leaf_vector":"1"}},{"base_weights":[6.635183E2,-1.0725338E3,7.044295E4,-2.091651E3,2.5817922E4,6.5215734E4,1.4542875E5,-3.9132278E3,5.267449E3,1.9956111E4,8.990583E4,6.00595E4,2.2542205E5,-4.2174644E3,3.140378E4,2.283157E4,2.4984287E3,1.4837705E4,4.368817E4,1.2677783E5,-2.3403822E4,5.41101E4,5.6778957E4,2.2506426E4,9.02046E4,-5.7998164E3,1.3667E3,-2.272716E3,4.2052754E4,1.7248207E4,2.1591633E5,3.614682E3,-4.077518E4,1.8401076E4,-1.2353795E5,1.2210361E4,1.0352321E5,8.68783E4,1.0879062E5,-1.5825289E5,8.358394E4,1.3909517E5,5.333723E4,-9.198738E2,-2.8690122E3,5.384827E3,-2.450909E2,3.179267E4,-1.03559795E4,-4.715141E3,1.5661492E4,2.8526206E3,2.8359705E4,8.0429E4,1.07925E3,2.1611995E2,9.404793E3,-3.5091963E3,-4.508723E4,-1.16915625E4,7.062437E3,-4.2946707E4,-6.7600503E3,-4.1773203E4,6.8930903E3,1.21815E2,4.3418844E4,4.5247145E4,-2.3245608E3,5.787347E3,-7.700116E4,3.32951E4,2.0771251E2,-2.7065625E3,5.1156887E4,1.3734417E4,2.2681754E4],"categories":[],"categories_nodes":[],"categories_segments":[],"categories_sizes":[],"default_left":[0,0,0,0,0,0,0,0,0,0,0,0,0,0,0,0,0,0,0,0,0,0,0,0,0,0,0,0,0,0,0,0,0,0,0,0,0,0,0,0,0,0,0,0,0,0,0,0,0,0,0,0,0,0,0,0,0,0,0,0,0,0,0,0,0,0,0,0,0,0,0,0,0,0,0,0,0],"id":12,"left_children":[1,3,5,7,9,11,-1,13,15,17,19,21,23,25,27,29,31,33,35,37,39,-1,41,-1,-1,43,45,47,49,51,53,55,57,59,61,63,65,67,-1,69,71,73,75,-1,-1,-1,-1,-1,-1,-1,-1,-1,-1,-1,-1,-1,-1,-1,-1,-1,-1,-1,-1,-1,-1,-1,-1,-1,-1,-1,-1,-1,-1,-1,-1,-1,-1],"loss_changes":[8.633244E11,1.9062504E11,3.4305887E11,8.9848635E10,9.36263E10,1.2854375E11,0E0,5.7853133E10,6.4628048E10,2.7775836E10,9.070412E10,5.6064147E10,3.403812E10,4.7077925E10,1.6592101E10,1.9140513E11,5.569735E10,9.79315E10,7.595846E10,1.1906453E11,9.97906E10,0E0,3.9327105E10,0E0,0E0,4.2675945E10,4.263523E10,4.554673E10,2.1347758E10,1.049716E11,5.4429827E10,9.004242E10,9.059187E10,5.6951996E10,6.6816E9,4.8857588E10,5.942824E10,9.193308E10,0E0,5.7371853E10,9.007985E9,2.9468385E10,2.3459987E10,0E0,0E0,0E0,0E0,0E0,0E0,0E0,0E0,0E0,0E0,0E0,0E0,0E0,0E0,0E0,0E0,0E0,0E0,0E0,0E0,0E0,0E0,0E0,0E0,0E0,0E0,0E0,0E0,0E0,0E0,0E0,0E0,0E0,0E0],"parents":[2147483647,0,0,1,1,2,2,3,3,4,4,5,5,7,7,8,8,9,9,10,10,11,11,12,12,13,13,14,14,15,15,16,16,17,17,18,18,19,19,20,20,22,22,25,25,26,26,27,27,28,28,29,29,30,30,31,31,32,32,33,33,34,34,35,35,36,36,37,37,39,39,40,40,41,41,42,42],"right_children":[2,4,6,8,10,12,-1,14,16,18,20,22,24,26,28,30,32,34,36,38,40,-1,42,-1,-1,44,46,48,50,52,54,56,58,60,62,64,66,68,-1,70,72,74,76,-1,-1,-1,-1,-1,-1,-1,-1,-1,-1,-1,-1,-1,-1,-1,-1,-1,-1,-1,-1,-1,-1,-1,-1,-1,-1,-1,-1,-1,-1,-1,-1,-1,-1],"split_conditions":[2.6751668E6,1.3742858E6,8.15E6,6.344E5,1.9E2,7.2E4,1.4542875E5,2.809E1,1.35E4,8.208E4,6.6E4,5E0,1.35E1,1.364E3,1E0,1.237E2,2E5,8E4,1.997E3,6.0175E4,9.9E4,5.41101E4,6.55E3,2.2506426E4,9.02046E4,7E4,1E0,4E4,9.99E2,1.1688E4,7.032E3,1.2E5,1.0325E2,1.205E1,1.687E2,1.299E1,1.58E6,3.6E4,1.0879062E5,9.7E4,1.136E5,2.95E6,5.4636365E6,-9.198738E2,-2.8690122E3,5.384827E3,-2.450909E2,3.179267E4,-1.03559795E4,-4.715141E3,1.5661492E4,2.8526206E3,2.8359705E4,8.0429E4,1.07925E3,2.1611995E2,9.404793E3,-3.5091963E3,-4.508723E4,-1.16915625E4,7.062437E3,-4.2946707E4,-6.7600503E3,-4.1773203E4,6.8930903E3,1.21815E2,4.3418844E4,4.5247145E4,-2.3245608E3,5.787347E3,-7.700116E4,3.32951E4,2.0771251E2,-2.7065625E3,5.1156887E4,1.3734417E4,2.2681754E4],"split_indices":[5,5,5,5,3,0,0,1,0,0,0,4,1,2,8,3,0,0,2,0,0,0,0,0,0,0,8,0,2,0,0,0,3,1,3,1,5,0,0,0,0,5,5,0,0,0,0,0,0,0,0,0,0,0,0,0,0,0,0,0,0,0,0,0,0,0,0,0,0,0,0,0,0,0,0,0,0],"split_type":[0,0,0,0,0,0,0,0,0,0,0,0,0,0,0,0,0,0,0,0,0,0,0,0,0,0,0,0,0,0,0,0,0,0,0,0,0,0,0,0,0,0,0,0,0,0,0,0,0,0,0,0,0,0,0,0,0,0,0,0,0,0,0,0,0,0,0,0,0,0,0,0,0,0,0,0,0],"sum_hessian":[7.125E3,6.953E3,1.72E2,6.7E3,2.53E2,1.71E2,1E0,5.371E3,1.329E3,2.33E2,2E1,1.67E2,4E0,5.326E3,4.5E1,1.8E2,1.149E3,1.93E2,4E1,1.5E1,5E0,3E0,1.64E2,2E0,2E0,4.15E3,1.176E3,1.1E1,3.4E1,1.76E2,4E0,1.121E3,2.8E1,1.89E2,4E0,2.7E1,1.3E1,1.4E1,1E0,2E0,3E0,5E0,1.59E2,2.405E3,1.745E3,1.36E2,1.04E3,2E0,9E0,5E0,2.9E1,1.61E2,1.5E1,3E0,1E0,1.016E3,1.05E2,2.3E1,5E0,1.5E1,1.74E2,3E0,1E0,1E0,2.6E1,4E0,9E0,8E0,6E0,1E0,1E0,2E0,1E0,1E0,4E0,1.21E2,3.8E1],"tree_param":{"num_deleted":"0","num_feature":"10","num_nodes":"77","size_leaf_vector":"1"}},{"base_weights":[5.448573E2,-7.25494E2,5.160542E4,-2.5302217E3,7.2535713E3,4.71142E4,1.2361441E5,-4.301173E3,1.1132328E3,6.12332E3,4.5150074E4,4.2868773E4,1.8033766E5,-4.8798654E2,-6.950884E3,3.2698926E4,4.527768E2,1.7374834E4,2.756714E3,1.7901111E5,1.3466934E4,3.3935156E4,7.5846945E4,6.486158E4,5.530088E3,1.4540723E4,-2.2204868E3,-1.4648937E3,-8.735633E3,1.2288213E3,7.204676E4,-1.1850314E2,2.2474469E4,1.3511986E4,1.5040262E5,-1.19324875E5,3.3916685E3,8.988182E4,1.3663375E4,-7.7956978E3,7.557146E4,6.693222E4,2.4184232E4,1.1794672E5,1.1512433E4,2.2924797E3,2.1881008E4,-8.784596E2,6.7927954E3,-1.3562194E3,9.9601455E3,-2.2200781E3,-7.1007915E3,4.6676333E3,-6.106166E3,4.31837E1,-1.160002E4,2.0855947E3,9.942066E3,3.3293706E3,2.8261088E4,1.2904801E3,8.862848E4,-4.5161383E4,8.2910626E2,-1.8530641E3,2.3826577E3,-6.5450984E4,4.9099336E4,-1.8413852E4,5.363634E3,8.899594E4,4.828045E2,4.6892477E4,1.4151062E4,-1.7723637E4,8.94817E3,2.39355E3,5.016209E4],"categories":[],"categories_nodes":[],"categories_segments":[],"categories_sizes":[],"default_left":[0,0,0,0,0,0,0,0,0,0,0,0,0,0,0,0,0,0,0,0,0,0,0,0,0,0,0,0,0,0,0,0,0,0,0,0,0,0,0,0,0,0,0,0,0,0,0,0,0,0,0,0,0,0,0,0,0,0,0,0,0,0,0,0,0,0,0,0,0,0,0,0,0,0,0,0,0,0,0],"id":13,"left_children":[1,3,5,7,9,11,-1,13,15,17,19,21,23,25,27,29,31,33,35,37,39,41,43,-1,-1,45,47,49,51,53,-1,55,57,59,61,63,65,-1,67,69,71,73,75,77,-1,-1,-1,-1,-1,-1,-1,-1,-1,-1,-1,-1,-1,-1,-1,-1,-1,-1,-1,-1,-1,-1,-1,-1,-1,-1,-1,-1,-1,-1,-1,-1,-1,-1,-1],"loss_changes":[4.622644E11,1.00156236E11,2.6064401E11,3.660269E10,5.4677746E10,8.9550684E10,0E0,3.856297E10,3.870314E10,4.7187726E10,1.5451138E11,4.692132E10,2.5050087E10,4.080661E10,2.2036791E10,2.4779515E11,2.2886683E10,1.454473E11,7.489781E10,1.3548708E11,4.1524806E10,4.1496035E10,5.0688754E10,0E0,0E0,6.470937E10,2.4788589E10,5.8836287E10,3.3706312E10,1.0832176E10,0E0,1.7953012E10,7.3853235E9,5.349754E10,1.6823632E11,1.9469828E10,4.171866E10,0E0,1.7480765E11,3.4115056E10,1.30335924E11,4.5614424E10,5.1096728E10,8.533893E10,0E0,0E0,0E0,0E0,0E0,0E0,0E0,0E0,0E0,0E0,0E0,0E0,0E0,0E0,0E0,0E0,0E0,0E0,0E0,0E0,0E0,0E0,0E0,0E0,0E0,0E0,0E0,0E0,0E0,0E0,0E0,0E0,0E0,0E0,0E0],"parents":[2147483647,0,0,1,1,2,2,3,3,4,4,5,5,7,7,8,8,9,9,10,10,11,11,12,12,13,13,14,14,15,15,16,16,17,17,18,18,19,19,20,20,21,21,22,22,25,25,26,26,27,27,28,28,29,29,31,31,32,32,33,33,34,34,35,35,36,36,38,38,39,39,40,40,41,41,42,42,43,43],"right_children":[2,4,6,8,10,12,-1,14,16,18,20,22,24,26,28,30,32,34,36,38,40,42,44,-1,-1,46,48,50,52,54,-1,56,58,60,62,64,66,-1,68,70,72,74,76,78,-1,-1,-1,-1,-1,-1,-1,-1,-1,-1,-1,-1,-1,-1,-1,-1,-1,-1,-1,-1,-1,-1,-1,-1,-1,-1,-1,-1,-1,-1,-1,-1,-1,-1,-1],"split_conditions":[2.6751668E6,6.85E5,8.15E6,1.94E1,2.835E3,7.2E4,1.2361441E5,1.933E1,1.961E1,2.44E4,2.982E3,1.943E2,1.03921E5,1E0,1E0,1.451E3,2.84E1,1.71E2,2.5E4,6.6E4,1.26E5,1.799E3,1.71E1,6.486158E4,5.530088E3,6E0,1.916E1,6.146923E5,5.833333E5,8.0251E4,7.204676E4,2.1E5,7.402E1,2.49E6,1.15E1,1.655E1,1E0,8.988182E4,9.9E4,1.4916666E6,1.3E5,9.599E3,1.969E3,1.205E1,1.1512433E4,2.2924797E3,2.1881008E4,-8.784596E2,6.7927954E3,-1.3562194E3,9.9601455E3,-2.2200781E3,-7.1007915E3,4.6676333E3,-6.106166E3,4.31837E1,-1.160002E4,2.0855947E3,9.942066E3,3.3293706E3,2.8261088E4,1.2904801E3,8.862848E4,-4.5161383E4,8.2910626E2,-1.8530641E3,2.3826577E3,-6.5450984E4,4.9099336E4,-1.8413852E4,5.363634E3,8.899594E4,4.828045E2,4.6892477E4,1.4151062E4,-1.7723637E4,8.94817E3,2.39355E3,5.016209E4],"split_indices":[5,5,5,1,2,0,0,1,1,0,2,3,0,8,8,2,1,3,0,0,0,2,1,0,0,4,1,5,5,0,0,0,3,5,1,1,8,0,0,5,0,0,2,1,0,0,0,0,0,0,0,0,0,0,0,0,0,0,0,0,0,0,0,0,0,0,0,0,0,0,0,0,0,0,0,0,0,0,0],"split_type":[0,0,0,0,0,0,0,0,0,0,0,0,0,0,0,0,0,0,0,0,0,0,0,0,0,0,0,0,0,0,0,0,0,0,0,0,0,0,0,0,0,0,0,0,0,0,0,0,0,0,0,0,0,0,0,0,0,0,0,0,0,0,0,0,0,0,0,0,0,0,0,0,0,0,0,0,0,0,0],"sum_hessian":[7.125E3,6.953E3,1.72E2,5.671E3,1.282E3,1.71E2,1E0,3.816E3,1.855E3,1.246E3,3.6E1,1.67E2,4E0,1.565E3,2.251E3,3.7E1,1.818E3,2.86E2,9.6E2,6E0,3E1,1.33E2,3.4E1,3E0,1E0,1.61E2,1.404E3,5.53E2,1.698E3,3.3E1,4E0,1.773E3,4.5E1,2.79E2,7E0,4E0,9.56E2,3E0,3E0,2.3E1,7E0,2.9E1,1.04E2,1.5E1,1.9E1,1.45E2,1.6E1,1.366E3,3.8E1,5.09E2,4.4E1,1.56E3,1.38E2,2E1,1.3E1,1.762E3,1.1E1,1.9E1,2.6E1,2.72E2,7E0,4E0,3E0,3E0,1E0,3.08E2,6.48E2,1E0,2E0,7E0,1.6E1,1E0,6E0,4E0,2.5E1,6E0,9.8E1,5E0,1E1],"tree_param":{"num_deleted":"0","num_feature":"10","num_nodes":"79","size_leaf_vector":"1"}},{"base_weights":[4.7099454E2,-1.056225E3,2.4493123E4,1.5911179E3,-3.8981877E3,2.2902562E4,1.0507223E5,2.2018178E4,3.945377E2,-1.665069E4,-3.1051123E3,1.8631693E4,5.5294707E4,3.6239383E4,-9.872462E3,6.5536475E2,-3.2264148E4,-1.3568018E4,-1.2737945E5,2.3168014E4,-3.356709E3,1.701562E4,7.624002E4,6.853496E4,-2.1128453E4,2.3974885E4,1.1326396E5,-2.5168564E4,4.2981445E3,-7.3645586E4,7.694722E2,3.2774445E4,-3.9049633E4,7.080515E4,-1.6791729E4,-4.819514E4,8.5569147E2,-3.735596E3,3.5461418E4,-3.7854229E3,1.2224281E4,1.4601278E4,4.8211902E4,3.70601E4,4.8974906E4,8.319228E4,5.1163637E4,-1.0276422E5,4.840585E4,-5.4379824E3,9.880455E3,6.2482586E4,1.820999E4,2.382336E3,-1.8363135E4,-2.07166E3,1.1631711E4,-3.694425E4,1.2145625E2,-2.3901326E3,5.080159E2,1.1322715E3,1.36162295E4,-3.0280781E3,-1.883234E4,3.5362777E4,8.520499E3,-6.55078E3,1.1554569E3,-9.271704E1,-2.6394424E3,2.6198701E4,6.351395E3,-3.803954E2,-1.9167635E3,1.107663E4,-1.6574039E3,8.1663706E3,1.7606848E3,3.3741527E4,4.0210627E3,2.00985E4,-1.1574863E4,1.730366E4,-3.043954E4,-4.0168E3,-5.5633332E4,1.8466201E4,-6.280125E2],"categories":[],"categories_nodes":[],"categories_segments":[],"categories_sizes":[],"default_left":[0,0,0,0,0,0,0,0,0,0,0,0,0,0,0,0,0,0,0,0,0,0,0,0,0,0,0,0,0,0,0,0,0,0,0,0,0,0,0,0,0,0,0,0,0,0,0,0,0,0,0,0,0,0,0,0,0,0,0,0,0,0,0,0,0,0,0,0,0,0,0,0,0,0,0,0,0,0,0,0,0,0,0,0,0,0,0,0,0],"id":14,"left_children":[1,3,5,7,9,11,-1,13,15,17,19,21,23,25,27,29,31,33,35,37,39,41,43,45,47,49,51,53,55,57,59,61,63,65,67,-1,-1,69,71,73,75,77,79,-1,81,-1,83,85,87,-1,-1,-1,-1,-1,-1,-1,-1,-1,-1,-1,-1,-1,-1,-1,-1,-1,-1,-1,-1,-1,-1,-1,-1,-1,-1,-1,-1,-1,-1,-1,-1,-1,-1,-1,-1,-1,-1,-1,-1],"loss_changes":[2.6145785E11,5.0422178E10,2.1269832E11,8.48072E10,3.2635752E10,5.7765364E10,0E0,8.743423E10,2.795255E10,6.278508E10,2.0199311E10,3.3801167E10,5.102928E10,1.22925335E11,1.3113479E10,2.7645045E10,1.2754104E10,5.1507945E10,2.2122938E10,9.723842E9,2.0192504E10,2.7013243E10,6.844621E9,1.381315E11,5.0386272E10,4.4355416E10,7.725282E10,3.5092804E10,1.2627362E10,1.8378052E10,2.6247E10,9.260344E8,1.5853834E10,1.0623881E10,1.8723148E10,0E0,0E0,1.7075094E8,1.2974991E10,1.9237016E10,3.5711193E10,3.763939E10,5.664876E10,0E0,1.5207254E10,0E0,4.5628834E10,2.7075162E10,3.4487132E9,0E0,0E0,0E0,0E0,0E0,0E0,0E0,0E0,0E0,0E0,0E0,0E0,0E0,0E0,0E0,0E0,0E0,0E0,0E0,0E0,0E0,0E0,0E0,0E0,0E0,0E0,0E0,0E0,0E0,0E0,0E0,0E0,0E0,0E0,0E0,0E0,0E0,0E0,0E0,0E0],"parents":[2147483647,0,0,1,1,2,2,3,3,4,4,5,5,7,7,8,8,9,9,10,10,11,11,12,12,13,13,14,14,15,15,16,16,17,17,18,18,19,19,20,20,21,21,22,22,23,23,24,24,25,25,26,26,27,27,28,28,29,29,30,30,31,31,32,32,33,33,34,34,37,37,38,38,39,39,40,40,41,41,42,42,44,44,46,46,47,47,48,48],"right_children":[2,4,6,8,10,12,-1,14,16,18,20,22,24,26,28,30,32,34,36,38,40,42,44,46,48,50,52,54,56,58,60,62,64,66,68,-1,-1,70,72,74,76,78,80,-1,82,-1,84,86,88,-1,-1,-1,-1,-1,-1,-1,-1,-1,-1,-1,-1,-1,-1,-1,-1,-1,-1,-1,-1,-1,-1,-1,-1,-1,-1,-1,-1,-1,-1,-1,-1,-1,-1,-1,-1,-1,-1,-1,-1],"split_conditions":[1.3742858E6,1E0,8.15E6,2.44E4,1.55E1,1.943E2,1.0507223E5,2.104E1,2.91E5,1.5604E5,2E3,2.04E1,6.6E4,1.055E2,7.754E5,2.5E4,2.29999E5,1.02E4,2.1E5,4.76111E5,1.173E2,1E5,2.254E1,2E6,9.9E4,5E3,1.25E4,7.5E1,2.51E1,1.61E1,1.9131755E5,1.94E1,1.36E1,1.481E1,1.03921E5,-4.819514E4,8.5569147E2,2.48E5,5.745E5,1.248E3,2.9E4,2.44E4,1.2E5,3.70601E4,2.6751668E6,8.319228E4,5.2E4,7.2E4,1.136E5,-5.4379824E3,9.880455E3,6.2482586E4,1.820999E4,2.382336E3,-1.8363135E4,-2.07166E3,1.1631711E4,-3.694425E4,1.2145625E2,-2.3901326E3,5.080159E2,1.1322715E3,1.36162295E4,-3.0280781E3,-1.883234E4,3.5362777E4,8.520499E3,-6.55078E3,1.1554569E3,-9.271704E1,-2.6394424E3,2.6198701E4,6.351395E3,-3.803954E2,-1.9167635E3,1.107663E4,-1.6574039E3,8.1663706E3,1.7606848E3,3.3741527E4,4.0210627E3,2.00985E4,-1.1574863E4,1.730366E4,-3.043954E4,-4.0168E3,-5.5633332E4,1.8466201E4,-6.280125E2],"split_indices":[5,7,5,0,1,3,0,1,0,0,0,1,0,3,5,0,5,0,0,5,3,0,1,5,0,0,0,3,1,1,5,1,1,1,0,0,0,5,5,2,0,0,0,0,5,0,0,0,0,0,0,0,0,0,0,0,0,0,0,0,0,0,0,0,0,0,0,0,0,0,0,0,0,0,0,0,0,0,0,0,0,0,0,0,0,0,0,0,0],"split_type":[0,0,0,0,0,0,0,0,0,0,0,0,0,0,0,0,0,0,0,0,0,0,0,0,0,0,0,0,0,0,0,0,0,0,0,0,0,0,0,0,0,0,0,0,0,0,0,0,0,0,0,0,0,0,0,0,0,0,0,0,0,0,0,0,0,0,0,0,0,0,0,0,0,0,0,0,0,0,0,0,0,0,0,0,0,0,0,0,0],"sum_hessian":[7.125E3,6.7E3,4.25E2,3.469E3,3.231E3,4.24E2,1E0,1.91E2,3.278E3,1.88E2,3.043E3,3.76E2,4.8E1,1.32E2,5.9E1,3.253E3,2.5E1,1.84E2,4E0,2.8E1,3.015E3,3.67E2,9E0,4.1E1,7E0,1.15E2,1.7E1,2.8E1,3.1E1,4E0,3.249E3,2E0,2.3E1,6E0,1.78E2,3E0,1E0,9E0,1.9E1,2.935E3,8E1,3.42E2,2.5E1,2E0,7E0,2E0,3.9E1,3E0,4E0,2E1,9.5E1,5E0,1.2E1,1.5E1,1.3E1,2.4E1,7E0,2E0,2E0,3.1E2,2.939E3,1E0,1E0,1.1E1,1.2E1,2E0,4E0,1.43E2,3.5E1,6E0,3E0,3E0,1.6E1,1.493E3,1.442E3,3.3E1,4.7E1,1.39E2,2.03E2,8E0,1.7E1,6E0,1E0,3.8E1,1E0,2E0,1E0,3E0,1E0],"tree_param":{"num_deleted":"0","num_feature":"10","num_nodes":"89","size_leaf_vector":"1"}},{"base_weights":[3.70052E2,2.8653772E2,8.931143E4,-2.9634766E2,2.8546393E4,1.8707168E3,-2.7526606E3,2.5030062E4,5.5641176E4,1.5423938E4,5.0760504E2,-1.4023319E4,-2.3081165E3,7.632064E4,1.599619E4,3.115726E4,3.2158367E3,2.1138501E2,4.7765793E4,-1.152407E4,-1.1098501E5,-2.43406E3,9.735505E4,2.9834178E4,1.4813188E5,4.1823035E4,2.4070093E3,1.6584434E4,4.224227E3,4.965675E3,-1.0193991E4,1.3445699E2,-1.6884508E4,9.4665E2,3.5958926E4,-8.401987E3,-1.0325482E3,-5.0670594E4,7.273383E2,6.367555E2,-9.917466E2,4.735922E4,7.3692065E3,1.57155E3,1.85266E4,4.9482336E4,4.570088E3,5.7503335E3,4.5708324E4,-1.7149523E5,5.01851E3],"categories":[],"categories_nodes":[],"categories_segments":[],"categories_sizes":[],"default_left":[0,0,0,0,0,0,0,0,0,0,0,0,0,0,0,0,0,0,0,0,0,0,0,0,0,0,0,0,0,0,0,0,0,0,0,0,0,0,0,0,0,0,0,0,0,0,0,0,0,0,0],"id":15,"left_children":[1,3,-1,5,7,9,11,13,-1,15,17,19,21,23,25,27,29,31,33,35,37,39,41,43,45,47,49,-1,-1,-1,-1,-1,-1,-1,-1,-1,-1,-1,-1,-1,-1,-1,-1,-1,-1,-1,-1,-1,-1,-1,-1],"loss_changes":[1.768654E11,1.1737328E11,0E0,3.7170258E10,7.481648E10,6.853277E10,1.6366365E10,6.457521E10,0E0,6.5012883E10,4.7193928E10,2.8770095E10,3.977557E10,6.5683866E10,4.2717135E10,6.019118E10,9.5805686E10,4.486774E10,6.7163673E10,1.6155956E10,2.011449E10,1.2507693E10,1.3740278E10,1.0668208E10,1.5358689E10,1.0225884E11,6.754869E11,0E0,0E0,0E0,0E0,0E0,0E0,0E0,0E0,0E0,0E0,0E0,0E0,0E0,0E0,0E0,0E0,0E0,0E0,0E0,0E0,0E0,0E0,0E0,0E0],"parents":[2147483647,0,0,1,1,3,3,4,4,5,5,6,6,7,7,9,9,10,10,11,11,12,12,13,13,14,14,15,15,16,16,17,17,18,18,19,19,20,20,21,21,22,22,23,23,24,24,25,25,26,26],"right_children":[2,4,-1,6,8,10,12,14,-1,16,18,20,22,24,26,28,30,32,34,36,38,40,42,44,46,48,50,-1,-1,-1,-1,-1,-1,-1,-1,-1,-1,-1,-1,-1,-1,-1,-1,-1,-1,-1,-1,-1,-1,-1,-1],"split_conditions":[8.15E6,2.95E6,8.931143E4,1E0,7.2E4,1E0,1.453E1,1.537E1,5.5641176E4,1.006E2,1.6537499E6,1.5604E5,1.687E2,1.43E1,1.02E4,4.8676E4,1.77E1,1.58E6,5.07E4,3.8E4,2.1E5,1.6E4,1.481E1,5.15E6,6.0175E4,1E4,1.25E4,1.6584434E4,4.224227E3,4.965675E3,-1.0193991E4,1.3445699E2,-1.6884508E4,9.4665E2,3.5958926E4,-8.401987E3,-1.0325482E3,-5.0670594E4,7.273383E2,6.367555E2,-9.917466E2,4.735922E4,7.3692065E3,1.57155E3,1.85266E4,4.9482336E4,4.570088E3,5.7503335E3,4.5708324E4,-1.7149523E5,5.01851E3],"split_indices":[5,5,0,7,0,9,1,1,0,3,5,0,3,1,0,0,1,5,0,0,0,0,1,5,0,0,0,0,0,0,0,0,0,0,0,0,0,0,0,0,0,0,0,0,0,0,0,0,0,0,0],"split_type":[0,0,0,0,0,0,0,0,0,0,0,0,0,0,0,0,0,0,0,0,0,0,0,0,0,0,0,0,0,0,0,0,0,0,0,0,0,0,0,0,0,0,0,0,0,0,0,0,0,0,0],"sum_hessian":[7.125E3,7.124E3,1E0,6.981E3,1.43E2,3.709E3,3.272E3,1.41E2,2E0,3.38E2,3.371E3,1.23E2,3.149E3,2E1,1.21E2,1.47E2,1.91E2,3.351E3,2E1,1.21E2,2E0,3.146E3,3E0,1.3E1,7E0,4.1E1,8E1,6E1,8.7E1,1.41E2,5E1,3.338E3,1.3E1,1.3E1,7E0,3.9E1,8.2E1,1E0,1E0,5.05E2,2.641E3,1E0,2E0,8E0,5E0,6E0,1E0,3.5E1,6E0,1E0,7.9E1],"tree_param":{"num_deleted":"0","num_feature":"10","num_nodes":"51","size_leaf_vector":"1"}},{"base_weights":[2.779571E2,2.0696481E2,7.59147E4,-1.2468408E2,2.7353492E4,-5.1557697E2,1.1097932E4,7.571353E4,1.6898572E4,2.0233912E3,-1.9602755E3,-2.7290031E4,1.6163479E4,4.280385E4,4.7082082E4,3.410343E4,6.072961E2,5.008625E2,2.8963742E4,-2.4168123E3,1.8233357E4,-6.199272E3,-1.035896E5,1.9216792E5,1.3547244E4,-1.338015E4,5.9471453E4,1.3493162E4,1.1022788E5,-1.4577094E5,2.6888744E4,1.3272116E1,6.053357E3,1.0098098E4,-2.9118465E4,-5.6734863E2,-5.2413003E3,6.2363833E3,-2.0366447E4,-5.165486E3,2.1900076E4,-4.4042402E4,-1.9675299E4,7.2492266E4,1.3983301E4,-3.4193757E3,6.1511616E3,1.1787735E4,3.9189227E4,-2.7239214E3,1.1836547E4,3.318836E3,2.0553766E4],"categories":[],"categories_nodes":[],"categories_segments":[],"categories_sizes":[],"default_left":[0,0,0,0,0,0,0,0,0,0,0,0,0,0,0,0,0,0,0,0,0,0,0,0,0,0,0,0,0,0,0,0,0,0,0,0,0,0,0,0,0,0,0,0,0,0,0,0,0,0,0,0,0],"id":16,"left_children":[1,3,-1,5,7,9,11,13,15,17,19,21,23,-1,25,27,29,31,33,35,37,39,41,43,45,-1,47,49,-1,-1,51,-1,-1,-1,-1,-1,-1,-1,-1,-1,-1,-1,-1,-1,-1,-1,-1,-1,-1,-1,-1,-1,-1],"loss_changes":[1.27822225E11,6.415061E10,0E0,3.0889079E10,4.2202173E10,2.4961337E10,4.6527185E10,2.2042337E10,2.01601E10,1.01216575E11,4.0027447E10,4.441587E10,9.409512E10,0E0,1.628313E10,2.3548779E11,4.9894084E11,2.0996936E10,8.139638E10,3.3534904E10,2.2531725E10,2.1329054E10,2.2685696E8,1.0340262E10,3.6328817E10,0E0,1.0662359E10,2.0283517E10,0E0,0E0,2.3615314E10,0E0,0E0,0E0,0E0,0E0,0E0,0E0,0E0,0E0,0E0,0E0,0E0,0E0,0E0,0E0,0E0,0E0,0E0,0E0,0E0,0E0,0E0],"parents":[2147483647,0,0,1,1,3,3,4,4,5,5,6,6,7,7,8,8,9,9,10,10,11,11,12,12,14,14,15,15,16,16,17,17,18,18,19,19,20,20,21,21,22,22,23,23,24,24,26,26,27,27,30,30],"right_children":[2,4,-1,6,8,10,12,14,16,18,20,22,24,-1,26,28,30,32,34,36,38,40,42,44,46,-1,48,50,-1,-1,52,-1,-1,-1,-1,-1,-1,-1,-1,-1,-1,-1,-1,-1,-1,-1,-1,-1,-1,-1,-1,-1,-1],"split_conditions":[8.15E6,3.975E6,7.59147E4,1.5386E2,1.799E3,5E4,1.6E4,9.599E3,1.02E4,4.6E4,2.621E1,1.25E4,1.85E4,4.280385E4,1E4,9E3,1.25E4,1.381E2,2.49E6,1.381E2,1.3E5,2.95E6,1.481E1,1.967E1,1.205E1,-1.338015E4,6.8089E4,8E3,1.1022788E5,-1.4577094E5,5.4636365E6,1.3272116E1,6.053357E3,1.0098098E4,-2.9118465E4,-5.6734863E2,-5.2413003E3,6.2363833E3,-2.0366447E4,-5.165486E3,2.1900076E4,-4.4042402E4,-1.9675299E4,7.2492266E4,1.3983301E4,-3.4193757E3,6.1511616E3,1.1787735E4,3.9189227E4,-2.7239214E3,1.1836547E4,3.318836E3,2.0553766E4],"split_indices":[5,5,0,3,2,0,0,0,0,0,1,0,0,0,0,0,0,3,5,3,0,5,1,1,1,0,0,0,0,0,5,0,0,0,0,0,0,0,0,0,0,0,0,0,0,0,0,0,0,0,0,0,0],"split_type":[0,0,0,0,0,0,0,0,0,0,0,0,0,0,0,0,0,0,0,0,0,0,0,0,0,0,0,0,0,0,0,0,0,0,0,0,0,0,0,0,0,0,0,0,0,0,0,0,0,0,0,0,0],"sum_hessian":[7.125E3,7.124E3,1E0,7.039E3,8.5E1,6.803E3,2.36E2,1.4E1,7.1E1,2.467E3,4.336E3,2.7E1,2.09E2,3E0,1.1E1,3.4E1,3.7E1,2.336E3,1.31E2,4.241E3,9.5E1,2.2E1,5E0,2E0,2.07E2,1E0,1E1,3.3E1,1E0,1E0,3.6E1,2.284E3,5.2E1,1.27E2,4E0,4.099E3,1.42E2,9.3E1,2E0,2E1,2E0,1E0,4E0,1E0,1E0,4.5E1,1.62E2,9E0,1E0,1.8E1,1.5E1,2.7E1,9E0],"tree_param":{"num_deleted":"0","num_feature":"10","num_nodes":"53","size_leaf_vector":"1"}},{"base_weights":[2.1746066E2,1.5711455E2,6.4527527E4,-8.5948875E1,2.0052572E4,1.4868677E3,-1.8955745E3,6.271381E4,1.2287051E4,1.4222494E4,4.4433524E2,-1.6108839E3,-1.4534022E4,3.9124832E4,1.8133223E4,4.8318535E4,3.0743958E3,3.0091604E3,3.3709074E4,2.741065E2,4.9660152E4,1.6673578E4,-1.8591031E3,-3.4252105E4,1.2649637E4,1.9744727E4,3.9459375E3,-1.137315E4,5.7185645E4,-5.6059375E4,9.469454E3,3.6388948E3,-6.0075967E3,1.3291077E4,-4.805765E3,-3.401452E3,2.8045676E2,4.8517586E4,-1.6993105E3,1.1523467E4,-1.5426816E2,-2.5386248E3,-4.358574E2,-1.1529784E4,4.5212627E3,2.0216422E4,-9.5493304E2,-4.4990005E3,3.827875E3,2.2318486E4,-1.3309126E3,9.369368E4,-5.7658848E4,-8.0223286E3,7.1150815E3],"categories":[],"categories_nodes":[],"categories_segments":[],"categories_sizes":[],"default_left":[0,0,0,0,0,0,0,0,0,0,0,0,0,0,0,0,0,0,0,0,0,0,0,0,0,0,0,0,0,0,0,0,0,0,0,0,0,0,0,0,0,0,0,0,0,0,0,0,0,0,0,0,0,0,0],"id":17,"left_children":[1,3,-1,5,7,9,11,13,15,17,19,21,23,-1,25,27,29,31,33,35,37,39,41,43,45,-1,47,-1,49,51,53,-1,-1,-1,-1,-1,-1,-1,-1,-1,-1,-1,-1,-1,-1,-1,-1,-1,-1,-1,-1,-1,-1,-1,-1],"loss_changes":[9.2367815E10,3.4457215E10,0E0,2.0040129E10,2.7720094E10,5.0009285E10,1.1756593E10,3.6871836E10,2.4415427E10,6.2173786E10,2.9166772E10,1.456799E10,3.9025967E10,0E0,5.8286653E9,1.3636968E10,2.3220689E10,3.8478504E10,5.55018E10,2.6650579E10,7.531547E10,1.6085762E10,8.466861E9,9.239405E9,2.7080958E10,0E0,1.5269784E9,0E0,1.5176663E10,3.6091878E11,2.9009222E10,0E0,0E0,0E0,0E0,0E0,0E0,0E0,0E0,0E0,0E0,0E0,0E0,0E0,0E0,0E0,0E0,0E0,0E0,0E0,0E0,0E0,0E0,0E0,0E0],"parents":[2147483647,0,0,1,1,3,3,4,4,5,5,6,6,7,7,8,8,9,9,10,10,11,11,12,12,14,14,15,15,16,16,17,17,18,18,19,19,20,20,21,21,22,22,23,23,24,24,26,26,28,28,29,29,30,30],"right_children":[2,4,-1,6,8,10,12,14,16,18,20,22,24,-1,26,28,30,32,34,36,38,40,42,44,46,-1,48,-1,50,52,54,-1,-1,-1,-1,-1,-1,-1,-1,-1,-1,-1,-1,-1,-1,-1,-1,-1,-1,-1,-1,-1,-1,-1,-1],"split_conditions":[8.15E6,3.975E6,6.4527527E4,1E0,1.537E1,2.44E4,1.0996E6,2.1456E2,1.71E2,1.7E4,2.1456E2,3.564E3,4.2E4,3.9124832E4,5.621E3,1E0,5.15E6,1.35E4,2.254E1,3.2995E4,5.4E4,1E0,1.55E1,2.2997368E6,5.85E4,1.9744727E4,1.85E4,-1.137315E4,3.04E4,1.02E4,8E3,3.6388948E3,-6.0075967E3,1.3291077E4,-4.805765E3,-3.401452E3,2.8045676E2,4.8517586E4,-1.6993105E3,1.1523467E4,-1.5426816E2,-2.5386248E3,-4.358574E2,-1.1529784E4,4.5212627E3,2.0216422E4,-9.5493304E2,-4.4990005E3,3.827875E3,2.2318486E4,-1.3309126E3,9.369368E4,-5.7658848E4,-8.0223286E3,7.1150815E3],"split_indices":[5,5,0,7,1,0,5,3,3,0,3,0,0,0,0,6,5,0,1,0,0,8,1,5,0,0,0,0,0,0,0,0,0,0,0,0,0,0,0,0,0,0,0,0,0,0,0,0,0,0,0,0,0,0,0],"split_type":[0,0,0,0,0,0,0,0,0,0,0,0,0,0,0,0,0,0,0,0,0,0,0,0,0,0,0,0,0,0,0,0,0,0,0,0,0,0,0,0,0,0,0,0,0,0,0,0,0,0,0,0,0,0,0],"sum_hessian":[7.125E3,7.124E3,1E0,7.039E3,8.5E1,3.766E3,3.273E3,1.2E1,7.3E1,2.84E2,3.482E3,3.202E3,7.1E1,4E0,8E0,1.4E1,5.9E1,1.81E2,1.03E2,3.471E3,1.1E1,4.2E1,3.16E3,4.1E1,3E1,1E0,7E0,1E0,1.3E1,5E0,5.4E1,1.3E2,5.1E1,8.5E1,1.8E1,1.86E2,3.285E3,3E0,8E0,1.8E1,2.4E1,1.82E2,2.978E3,3.8E1,3E0,6E0,2.4E1,2E0,5E0,1E1,3E0,1E0,4E0,1.5E1,3.9E1],"tree_param":{"num_deleted":"0","num_feature":"10","num_nodes":"55","size_leaf_vector":"1"}},{"base_weights":[1.8561111E2,1.3431703E2,5.4848402E4,-3.0916853E1,1.8958154E4,8.5986096E2,-4.0186772E3,4.1459668E4,-7.9190875E2,2.9594076E1,7.851391E3,-1.9160939E3,-3.3432562E4,4.6898057E3,9.315949E4,-5.3843215E4,3.461334E4,-2.6411542E2,2.1097662E4,1.6724025E4,1.26893E3,-3.2314463E3,3.0560705E4,-1.5327902E4,-1.181061E5,2.5326117E4,-5.191913E4,1.3290089E5,-7.0365E4,-2.0665154E4,-1.3162208E5,1.2406525E5,1.2812172E4,-2.751579E1,-6.78076E3,1.3461444E4,1.6468129E3,4.0127744E3,2.3870023E4,5.217099E3,-1.172727E3,-1.0355217E3,3.7780125E4,2.3851277E4,4.5551865E3,-2.6390258E4,-1.4620371E3,-5.3692438E4,-6.892219E3,-6.421088E3,1.8053191E4,-9.595413E3,5.3436113E4,-4.377975E3,-2.7286275E4,-2.0221056E3,-1.3004541E4,-4.4566523E4,-1.212346E4,-1.0545625E3,7.6021E4,-1.0627116E4,1.949521E4],"categories":[],"categories_nodes":[],"categories_segments":[],"categories_sizes":[],"default_left":[0,0,0,0,0,0,0,0,0,0,0,0,0,0,0,0,0,0,0,0,0,0,0,0,0,0,0,0,0,0,0,0,0,0,0,0,0,0,0,0,0,0,0,0,0,0,0,0,0,0,0,0,0,0,0,0,0,0,0,0,0,0,0],"id":18,"left_children":[1,3,-1,5,7,9,11,13,15,17,19,21,23,25,27,29,31,33,35,37,39,41,43,45,47,49,-1,51,53,55,57,59,61,-1,-1,-1,-1,-1,-1,-1,-1,-1,-1,-1,-1,-1,-1,-1,-1,-1,-1,-1,-1,-1,-1,-1,-1,-1,-1,-1,-1,-1,-1],"loss_changes":[6.6735194E10,2.2161725E10,0E0,2.5096255E10,2.758603E10,3.3522692E10,7.971618E10,5.469197E10,6.5725706E10,3.1953654E10,3.5780284E10,5.157447E10,1.3002644E11,7.041024E10,8.733587E10,3.3407734E10,3.936373E10,1.9611353E10,2.609955E10,5.385126E10,2.9535336E10,3.341305E10,3.416467E10,5.424859E10,8.2746655E10,2.8973986E10,0E0,8.025755E10,2.1175767E9,3.1822838E9,1.7453875E8,6.68948E10,4.759999E10,0E0,0E0,0E0,0E0,0E0,0E0,0E0,0E0,0E0,0E0,0E0,0E0,0E0,0E0,0E0,0E0,0E0,0E0,0E0,0E0,0E0,0E0,0E0,0E0,0E0,0E0,0E0,0E0,0E0,0E0],"parents":[2147483647,0,0,1,1,3,3,4,4,5,5,6,6,7,7,8,8,9,9,10,10,11,11,12,12,13,13,14,14,15,15,16,16,17,17,18,18,19,19,20,20,21,21,22,22,23,23,24,24,25,25,27,27,28,28,29,29,30,30,31,31,32,32],"right_children":[2,4,-1,6,8,10,12,14,16,18,20,22,24,26,28,30,32,34,36,38,40,42,44,46,48,50,-1,52,54,56,58,60,62,-1,-1,-1,-1,-1,-1,-1,-1,-1,-1,-1,-1,-1,-1,-1,-1,-1,-1,-1,-1,-1,-1,-1,-1,-1,-1,-1,-1,-1,-1],"split_conditions":[8.15E6,2.835E3,5.4848402E4,1.03921E5,6.8745E4,1.173E2,1.38E2,5.2132E4,1.03921E5,8E0,1E6,8.182857E5,1.526E1,5.2E4,2.987E3,8.0251E4,1E0,1.1E2,1.36E1,9.518182E5,1.02E4,2.65E3,8.35E5,2.148E3,1.4E5,1.85E4,-5.191913E4,8.383E1,1.15E1,1.6537499E6,9.9E4,1.23E5,1.19E1,-2.751579E1,-6.78076E3,1.3461444E4,1.6468129E3,4.0127744E3,2.3870023E4,5.217099E3,-1.172727E3,-1.0355217E3,3.7780125E4,2.3851277E4,4.5551865E3,-2.6390258E4,-1.4620371E3,-5.3692438E4,-6.892219E3,-6.421088E3,1.8053191E4,-9.595413E3,5.3436113E4,-4.377975E3,-2.7286275E4,-2.0221056E3,-1.3004541E4,-4.4566523E4,-1.212346E4,-1.0545625E3,7.6021E4,-1.0627116E4,1.949521E4],"split_indices":[5,2,0,0,0,3,3,0,0,4,5,5,1,0,2,0,8,3,1,5,0,2,5,2,0,0,0,3,1,5,0,0,1,0,0,0,0,0,0,0,0,0,0,0,0,0,0,0,0,0,0,0,0,0,0,0,0,0,0,0,0,0,0],"split_type":[0,0,0,0,0,0,0,0,0,0,0,0,0,0,0,0,0,0,0,0,0,0,0,0,0,0,0,0,0,0,0,0,0,0,0,0,0,0,0,0,0,0,0,0,0,0,0,0,0,0,0,0,0,0,0,0,0,0,0,0,0,0,0],"sum_hessian":[7.125E3,7.124E3,1E0,7.063E3,6.1E1,5.774E3,1.289E3,2.8E1,3.3E1,5.162E3,6.12E2,1.204E3,8.5E1,1.7E1,1.1E1,1.3E1,2E1,5.092E3,7E1,2.6E2,3.52E2,1.158E3,4.6E1,7.1E1,1.4E1,1.6E1,1E0,9E0,2E0,1E1,3E0,3E0,1.7E1,5.054E3,3.8E1,2.7E1,4.3E1,2.48E2,1.2E1,8.5E1,2.67E2,1.157E3,1E0,1E1,3.6E1,8E0,6.3E1,8E0,6E0,7E0,9E0,2E0,7E0,1E0,1E0,7E0,3E0,2E0,1E0,2E0,1E0,9E0,8E0],"tree_param":{"num_deleted":"0","num_feature":"10","num_nodes":"63","size_leaf_vector":"1"}},{"base_weights":[1.377593E2,9.4156525E1,4.6621125E4,-2.2574335E2,7.1513193E3,-9.348347E3,6.163059E0,-1.2320679E3,2.1703318E4,-1.954109E4,-7.0974136E3,2.2185447E3,-1.2037266E3,4.94555E3,-5.615126E4,3.6713996E4,-4.546017E3,-9.739479E3,-1.6902705E4,-9.316053E3,-4.6112646E3,1.0918168E3,2.2106465E4,-1.3449023E3,8.554929E4,-1.6012483E3,2.1279758E4,3.647612E4,-7.190523E4,7.369357E4,1.6688928E4,-6.9035766E4,2.05644E4,-5.1577144E3,-1.4056681E3,-2.831012E3,-9.435092E1,-1.4783148E3,1.1663246E3,7.849619E2,-1.6586709E3,3.1530305E3,2.0560611E4,-3.2965976E2,-2.1432379E4,-1.5830438E4,3.5219062E4,-1.080614E4,2.3869702E3,-1.2828371E4,1.1382741E4,-2.6741783E4,-1.746615E3,1.5724264E4,3.9702758E4,2.042552E4,-1.2934258E2,-3.997386E4,-1.2408027E3,-3.0000377E4,9.698278E3],"categories":[],"categories_nodes":[],"categories_segments":[],"categories_sizes":[],"default_left":[0,0,0,0,0,0,0,0,0,0,0,0,0,0,0,0,0,0,0,0,0,0,0,0,0,0,0,0,0,0,0,0,0,0,0,0,0,0,0,0,0,0,0,0,0,0,0,0,0,0,0,0,0,0,0,0,0,0,0,0,0],"id":19,"left_children":[1,3,-1,5,7,9,11,13,15,17,19,21,23,25,27,29,31,-1,33,35,37,39,41,43,45,47,49,-1,51,53,55,57,59,-1,-1,-1,-1,-1,-1,-1,-1,-1,-1,-1,-1,-1,-1,-1,-1,-1,-1,-1,-1,-1,-1,-1,-1,-1,-1,-1,-1],"loss_changes":[4.822858E10,1.608691E10,0E0,1.4422035E10,3.772321E10,3.738709E9,1.78003E10,6.7113845E10,4.46912E10,4.7419597E8,7.292626E8,5.2657725E10,5.2766708E10,1.9068817E10,6.474442E10,5.2087472E10,6.943299E10,0E0,1.4998016E7,7.631514E7,2.0204518E8,2.2485406E10,6.7118887E10,7.39597E10,3.703034E10,4.2395083E10,5.604439E10,0E0,2.1119762E10,2.4263664E10,4.226481E10,4.945577E10,4.7198142E10,0E0,0E0,0E0,0E0,0E0,0E0,0E0,0E0,0E0,0E0,0E0,0E0,0E0,0E0,0E0,0E0,0E0,0E0,0E0,0E0,0E0,0E0,0E0,0E0,0E0,0E0,0E0,0E0],"parents":[2147483647,0,0,1,1,3,3,4,4,5,5,6,6,7,7,8,8,9,9,10,10,11,11,12,12,13,13,14,14,15,15,16,16,18,18,19,19,20,20,21,21,22,22,23,23,24,24,25,25,26,26,28,28,29,29,30,30,31,31,32,32],"right_children":[2,4,-1,6,8,10,12,14,16,18,20,22,24,26,28,30,32,-1,34,36,38,40,42,44,46,48,50,-1,52,54,56,58,60,-1,-1,-1,-1,-1,-1,-1,-1,-1,-1,-1,-1,-1,-1,-1,-1,-1,-1,-1,-1,-1,-1,-1,-1,-1,-1,-1,-1],"split_conditions":[8.15E6,1.5386E2,4.6621125E4,2.2E4,5.2132E4,1E0,5E4,4.6E4,9.7E4,2.3709E4,1E0,4.6E4,2.6751668E6,1E0,1.799E3,2.199E3,1.999E3,-9.739479E3,8.5E4,8.95E4,5.8E0,4E4,8.182857E5,1.7625E6,5.4E4,1.481E1,1.968E3,3.647612E4,2.49E6,8.208E4,6.6E4,1.61E1,9.9E4,-5.1577144E3,-1.4056681E3,-2.831012E3,-9.435092E1,-1.4783148E3,1.1663246E3,7.849619E2,-1.6586709E3,3.1530305E3,2.0560611E4,-3.2965976E2,-2.1432379E4,-1.5830438E4,3.5219062E4,-1.080614E4,2.3869702E3,-1.2828371E4,1.1382741E4,-2.6741783E4,-1.746615E3,1.5724264E4,3.9702758E4,2.042552E4,-1.2934258E2,-3.997386E4,-1.2408027E3,-3.0000377E4,9.698278E3],"split_indices":[5,3,0,5,0,7,0,0,0,0,8,0,5,8,2,2,2,0,0,0,5,0,5,5,0,1,2,0,5,0,0,1,0,0,0,0,0,0,0,0,0,0,0,0,0,0,0,0,0,0,0,0,0,0,0,0,0,0,0,0,0],"split_type":[0,0,0,0,0,0,0,0,0,0,0,0,0,0,0,0,0,0,0,0,0,0,0,0,0,0,0,0,0,0,0,0,0,0,0,0,0,0,0,0,0,0,0,0,0,0,0,0,0,0,0,0,0,0,0,0,0,0,0,0,0],"sum_hessian":[7.125E3,7.124E3,1E0,6.816E3,3.08E2,1.68E2,6.648E3,1.96E2,1.12E2,2.9E1,1.39E2,2.35E3,4.298E3,1.77E2,1.9E1,7.1E1,4.1E1,3E0,2.6E1,7.2E1,6.7E1,2.225E3,1.25E2,4.292E3,6E0,1.27E2,5E1,1E0,1.8E1,2.4E1,4.7E1,1.1E1,3E1,2.5E1,1E0,7.1E1,1E0,6.5E1,2E0,1.809E3,4.16E2,1.01E2,2.4E1,4.278E3,1.4E1,1E0,5E0,2.7E1,1E2,1E1,4E1,1.4E1,4E0,1.9E1,5E0,1.1E1,3.6E1,5E0,6E0,2E0,2.8E1],"tree_param":{"num_deleted":"0","num_feature":"10","num_nodes":"61","size_leaf_vector":"1"}},{"base_weights":[1.0483742E2,6.777332E1,3.9627977E4,-4.9421646E3,3.7915747E2,-3.9818079E3,-2.7304564E4,2.6385312E3,-3.8696808E2,3.4267568E3,-6.5539854E3,-9.144852E3,-3.910188E4,1.8941062E3,2.4445607E4,-1.8858407E3,1.6068309E3,-1.1259876E4,1.1705344E4,-2.9824536E3,-1.5181695E4,-2.751154E4,7.3774688E3,-1.8841969E4,-1.3527897E4,7.022674E2,1.1347271E4,4.2147285E4,-4.8273184E3,-2.553154E3,1.8688363E4,4.754793E4,1.218571E3,-6.459121E3,-1.517396E3,1.0992004E4,5.3937396E2,-6.628737E3,-6.078655E2,-3.1081648E3,-8.952153E3,-9.526188E3,-2.2176423E3,2.9431758E3,-3.5325E2,-8.415973E3,1.3187766E3,6.6863544E2,-2.1692512E3,-8.956148E1,5.359068E3,6.238279E3,3.348434E4,-1.3066608E4,4.8448374E3,-5.1306067E2,-3.9637292E3,1.643275E4,-8.049E1,2.2202963E4,1.1196465E4,4.4364975E2,-7.1501235E3],"categories":[],"categories_nodes":[],"categories_segments":[],"categories_sizes":[],"default_left":[0,0,0,0,0,0,0,0,0,0,0,0,0,0,0,0,0,0,0,0,0,0,0,0,0,0,0,0,0,0,0,0,0,0,0,0,0,0,0,0,0,0,0,0,0,0,0,0,0,0,0,0,0,0,0,0,0,0,0,0,0,0,0],"id":20,"left_children":[1,3,-1,5,7,9,11,13,15,17,19,21,23,25,27,29,31,33,35,37,39,41,43,45,-1,47,49,51,53,55,57,59,61,-1,-1,-1,-1,-1,-1,-1,-1,-1,-1,-1,-1,-1,-1,-1,-1,-1,-1,-1,-1,-1,-1,-1,-1,-1,-1,-1,-1,-1,-1],"loss_changes":[3.485166E10,1.1116981E10,0E0,8.846719E9,1.1614058E10,7.663972E9,3.2844278E9,2.7534811E10,1.4978157E10,1.2776595E10,9.137336E9,2.6306478E9,3.6415283E8,1.8514403E10,2.9221538E10,3.9327646E10,3.8309626E10,2.3115735E9,1.6485703E10,3.8299215E9,5.839325E9,1.0669005E8,1.1562819E8,9.7952205E8,0E0,1.7708857E10,1.3968622E10,4.9595752E10,1.8575964E10,2.4884537E10,6.1583516E10,2.1088174E9,1.394925E10,0E0,0E0,0E0,0E0,0E0,0E0,0E0,0E0,0E0,0E0,0E0,0E0,0E0,0E0,0E0,0E0,0E0,0E0,0E0,0E0,0E0,0E0,0E0,0E0,0E0,0E0,0E0,0E0,0E0,0E0],"parents":[2147483647,0,0,1,1,3,3,4,4,5,5,6,6,7,7,8,8,9,9,10,10,11,11,12,12,13,13,14,14,15,15,16,16,17,17,18,18,19,19,20,20,21,21,22,22,23,23,25,25,26,26,27,27,28,28,29,29,30,30,31,31,32,32],"right_children":[2,4,-1,6,8,10,12,14,16,18,20,22,24,26,28,30,32,34,36,38,40,42,44,46,-1,48,50,52,54,56,58,60,62,-1,-1,-1,-1,-1,-1,-1,-1,-1,-1,-1,-1,-1,-1,-1,-1,-1,-1,-1,-1,-1,-1,-1,-1,-1,-1,-1,-1,-1,-1],"split_conditions":[8.15E6,5.816E1,3.9627977E4,3.081025E5,8.186E1,3.6E4,1.6E4,8.183E1,8.314E1,2.4138455E5,5.35E1,7.99E2,7.99E2,2.51E1,5.570055E5,1.58E6,8.38E1,2.05E4,2.207E1,1E0,2.4192308E5,1.02E4,1.35E4,4.1E4,-1.3527897E4,5.2404994E5,4.45E4,5.499998E5,5.833333E5,8.315713E5,1.95E6,2E1,2.728E1,-6.459121E3,-1.517396E3,1.0992004E4,5.3937396E2,-6.628737E3,-6.078655E2,-3.1081648E3,-8.952153E3,-9.526188E3,-2.2176423E3,2.9431758E3,-3.5325E2,-8.415973E3,1.3187766E3,6.6863544E2,-2.1692512E3,-8.956148E1,5.359068E3,6.238279E3,3.348434E4,-1.3066608E4,4.8448374E3,-5.1306067E2,-3.9637292E3,1.643275E4,-8.049E1,2.2202963E4,1.1196465E4,4.4364975E2,-7.1501235E3],"split_indices":[5,3,0,5,3,0,0,3,3,5,3,2,2,1,5,5,3,0,1,8,5,0,0,0,0,5,0,5,5,5,5,1,1,0,0,0,0,0,0,0,0,0,0,0,0,0,0,0,0,0,0,0,0,0,0,0,0,0,0,0,0,0,0],"split_type":[0,0,0,0,0,0,0,0,0,0,0,0,0,0,0,0,0,0,0,0,0,0,0,0,0,0,0,0,0,0,0,0,0,0,0,0,0,0,0,0,0,0,0,0,0,0,0,0,0,0,0,0,0,0,0,0,0,0,0,0,0,0,0],"sum_hessian":[7.125E3,7.124E3,1E0,4.16E2,6.708E3,4E2,1.6E1,1.698E3,5.01E3,1.03E2,2.97E2,7E0,9E0,1.643E3,5.5E1,2.86E3,2.15E3,3.7E1,6.6E1,2.11E2,8.6E1,3E0,4E0,3E0,6E0,1.46E3,1.83E2,3.4E1,2.1E1,2.771E3,8.9E1,1.7E1,2.133E3,1.3E1,2.4E1,1.8E1,4.8E1,9E0,2.02E2,6.6E1,2E1,2E0,1E0,3E0,1E0,2E0,1E0,1.225E3,2.35E2,6.6E1,1.17E2,2.7E1,7E0,7E0,1.4E1,2.569E3,2.02E2,3E1,5.9E1,3E0,1.4E1,2.112E3,2.1E1],"tree_param":{"num_deleted":"0","num_feature":"10","num_nodes":"63","size_leaf_vector":"1"}},{"base_weights":[8.292623E1,5.1420883E1,3.3683777E4,7.184762E1,-2.1820295E4,-1.1479736E4,1.7488895E2,-2.78882E4,8.719436E3,7.8035884E3,-1.5647647E2,-4.8767016E4,-9.790737E3,3.4942836E4,-3.1342283E4,4.547161E4,1.6925948E3,5.748637E2,-3.745395E3,-1.32618E3,-1.8954232E4,-8.759344E3,2.6226377E3,5.2940117E3,3.4662375E4,6.4807656E3,-2.1673832E4,6.2830615E3,6.5365508E4,-8.684954E3,3.3956594E3,2.5666359E1,1.8010143E3,-9.4202106E2,-1.820608E4],"categories":[],"categories_nodes":[],"categories_segments":[],"categories_sizes":[],"default_left":[0,0,0,0,0,0,0,0,0,0,0,0,0,0,0,0,0,0,0,0,0,0,0,0,0,0,0,0,0,0,0,0,0,0,0],"id":21,"left_children":[1,3,-1,5,-1,7,9,11,13,15,17,19,21,23,25,27,29,31,33,-1,-1,-1,-1,-1,-1,-1,-1,-1,-1,-1,-1,-1,-1,-1,-1],"loss_changes":[2.5183095E10,1.0598496E10,0E0,8.481638E9,0E0,2.1123723E10,1.7853161E10,1.2747409E10,3.1561265E10,6.7598615E10,1.7768884E10,9.947877E9,7.448624E9,2.3053812E10,2.754845E10,1.688244E11,7.525066E10,1.4938085E10,3.930992E10,0E0,0E0,0E0,0E0,0E0,0E0,0E0,0E0,0E0,0E0,0E0,0E0,0E0,0E0,0E0,0E0],"parents":[2147483647,0,0,1,1,3,3,5,5,6,6,7,7,8,8,9,9,10,10,11,11,12,12,13,13,14,14,15,15,16,16,17,17,18,18],"right_children":[2,4,-1,6,-1,8,10,12,14,16,18,20,22,24,26,28,30,32,34,-1,-1,-1,-1,-1,-1,-1,-1,-1,-1,-1,-1,-1,-1,-1,-1],"split_conditions":[8.15E6,1.5E6,3.3683777E4,1.15E1,-2.1820295E4,7.48E4,1.36E1,1E0,1.136E5,7E4,1.03921E5,1.5775E2,1.2E6,1.58E6,7E0,6.0175E4,8.0251E4,1.798E3,1.48E2,-1.32618E3,-1.8954232E4,-8.759344E3,2.6226377E3,5.2940117E3,3.4662375E4,6.4807656E3,-2.1673832E4,6.2830615E3,6.5365508E4,-8.684954E3,3.3956594E3,2.5666359E1,1.8010143E3,-9.4202106E2,-1.820608E4],"split_indices":[5,0,0,1,0,0,1,8,0,0,0,3,5,5,4,0,0,2,3,0,0,0,0,0,0,0,0,0,0,0,0,0,0,0,0],"split_type":[0,0,0,0,0,0,0,0,0,0,0,0,0,0,0,0,0,0,0,0,0,0,0,0,0,0,0,0,0,0,0,0,0,0,0],"sum_hessian":[7.125E3,7.124E3,1E0,7.123E3,1E0,6.2E1,7.061E3,3.4E1,2.8E1,2.93E2,6.768E3,1.5E1,1.9E1,1.7E1,1.1E1,4E1,2.53E2,5.623E3,1.145E3,4E0,1.1E1,9E0,1E1,1.5E1,2E0,5E0,6E0,3.6E1,4E0,6E1,1.93E2,5.159E3,4.64E2,1.134E3,1.1E1],"tree_param":{"num_deleted":"0","num_feature":"10","num_nodes":"35","size_leaf_vector":"1"}},{"base_weights":[6.6361244E1,3.9581154E1,2.8631176E4,1.1356322E2,-1.7460963E4,-3.752226E0,2.6850252E4,2.7528256E4,-2.7559936E4,1.18192726E2,-1.3781504E4,5.2240156E4,-2.4062312E4,1.3534495E4,2.2368447E3,3.623448E4,-3.4682688E4,1.1639529E3,-1.0664014E3,-2.1445963E4,1.0271464E5,-3.2142356E3,1.2653648E5,6.611907E2,-2.6909338E4,2.9605047E4,-1.329953E4,-1.3665616E4,-6.585751E4,1.9066658E3,7.1607547E0,-3.4129733E2,2.318015E4,-4.6827144E3,-3.755961E4,6.6737817E3,3.6636668E4,-4.471684E3,2.0562344E4,4.9375508E4,1.1348867E4,-1.2469346E4,-4.407233E3,-6.2676406E3,1.3125845E4,-3.221467E3,-2.7488234E4],"categories":[],"categories_nodes":[],"categories_segments":[],"categories_sizes":[],"default_left":[0,0,0,0,0,0,0,0,0,0,0,0,0,0,0,0,0,0,0,0,0,0,0,0,0,0,0,0,0,0,0,0,0,0,0,0,0,0,0,0,0,0,0,0,0,0,0],"id":22,"left_children":[1,3,-1,5,7,9,11,13,15,17,19,21,23,-1,-1,25,27,29,31,33,35,37,39,-1,41,-1,-1,43,45,-1,-1,-1,-1,-1,-1,-1,-1,-1,-1,-1,-1,-1,-1,-1,-1,-1,-1],"loss_changes":[1.8196318E10,9.226907E9,0E0,2.2257603E10,1.4389026E10,1.1873408E10,4.1329635E10,1.7816315E9,1.2616503E10,8.679044E9,5.756137E10,8.692792E10,8.8189594E8,0E0,0E0,1.946866E10,1.4169694E10,2.2023916E10,1.8423976E10,3.3775917E10,3.5300884E9,1.1927596E10,2.4150344E10,0E0,1.1800335E9,0E0,0E0,7.1381187E9,1.1799876E10,0E0,0E0,0E0,0E0,0E0,0E0,0E0,0E0,0E0,0E0,0E0,0E0,0E0,0E0,0E0,0E0,0E0,0E0],"parents":[2147483647,0,0,1,1,3,3,4,4,5,5,6,6,7,7,8,8,9,9,10,10,11,11,12,12,15,15,16,16,17,17,18,18,19,19,20,20,21,21,22,22,24,24,27,27,28,28],"right_children":[2,4,-1,6,8,10,12,14,16,18,20,22,24,-1,-1,26,28,30,32,34,36,38,40,-1,42,-1,-1,44,46,-1,-1,-1,-1,-1,-1,-1,-1,-1,-1,-1,-1,-1,-1,-1,-1,-1,-1],"split_conditions":[8.15E6,2.91E5,2.8631176E4,2.3E5,2.29999E5,2E5,6E5,1.086E3,1E0,1E0,8.182857E5,4.8366666E5,1.298E3,1.3534495E4,2.2368447E3,5.556666E5,1.38E1,4E4,5.4636365E6,1.38E2,1.15E1,2.359E1,8E0,6.611907E2,1.006E2,2.9605047E4,-1.329953E4,8.315713E5,3.839998E5,1.9066658E3,7.1607547E0,-3.4129733E2,2.318015E4,-4.6827144E3,-3.755961E4,6.6737817E3,3.6636668E4,-4.471684E3,2.0562344E4,4.9375508E4,1.1348867E4,-1.2469346E4,-4.407233E3,-6.2676406E3,1.3125845E4,-3.221467E3,-2.7488234E4],"split_indices":[5,0,0,0,5,0,5,2,8,7,5,5,2,0,0,5,1,0,5,3,1,1,4,0,3,0,0,5,5,0,0,0,0,0,0,0,0,0,0,0,0,0,0,0,0,0,0],"split_type":[0,0,0,0,0,0,0,0,0,0,0,0,0,0,0,0,0,0,0,0,0,0,0,0,0,0,0,0,0,0,0,0,0,0,0,0,0,0,0,0,0,0,0,0,0,0,0],"sum_hessian":[7.125E3,7.124E3,1E0,7.095E3,2.9E1,7.065E3,3E1,5E0,2.4E1,7.004E3,6.1E1,2E1,1E1,2E0,3E0,2E0,2.2E1,3.72E3,3.284E3,5.8E1,3E0,1.2E1,8E0,1E0,9E0,1E0,1E0,1.4E1,8E0,6.69E2,3.051E3,3.282E3,2E0,5.6E1,2E0,1E0,2E0,1.1E1,1E0,5E0,3E0,3E0,6E0,1.3E1,1E0,3E0,5E0],"tree_param":{"num_deleted":"0","num_feature":"10","num_nodes":"47","size_leaf_vector":"1"}},{"base_weights":[6.375322E1,4.099115E1,2.4336525E4,-2.5117273E3,3.9319614E2,2.147343E2,-1.45095E4,3.429304E3,-3.684864E2,1.0185601E3,-2.169007E4,-2.6137219E4,-8.829216E3,4.0288652E3,-2.6254256E4,-7.6950574E2,4.9695605E3,-2.9709717E3,7.7793926E3,-1.4667427E4,-4.148387E4,-1.0548073E4,-4.2551574E4,1.5274274E3,-1.6135098E4,1.083282E4,2.0988916E3,-4.678339E3,-7.151829E4,-1.3865858E2,-5.5901377E3,-3.6307783E3,1.7592809E4,-6.885957E2,-6.4397915E3,4.2368535E3,-3.0244434E2,-5.2306177E2,-5.0536655E3,-3.8607625E3,-1.577217E4,-7.96323E3,7.8511987E3,-1.4762404E4,-3.9814563E3,3.8938833E3,-2.5834773E3,-5.32407E3,1.2811267E4,7.9689707E3,-7.578589E2,1.3937483E2,6.681485E3,2.1440078E3,-4.45591E3,-9.318214E3,-2.6874209E4,8.45446E2,-2.4671562E2,-2.5443743E3,7.6738174E3,4.0807022E1,-1.4722897E4,1.9975846E4,2.8450144E3],"categories":[],"categories_nodes":[],"categories_segments":[],"categories_sizes":[],"default_left":[0,0,0,0,0,0,0,0,0,0,0,0,0,0,0,0,0,0,0,0,0,0,0,0,0,0,0,0,0,0,0,0,0,0,0,0,0,0,0,0,0,0,0,0,0,0,0,0,0,0,0,0,0,0,0,0,0,0,0,0,0,0,0,0,0],"id":23,"left_children":[1,3,-1,5,7,9,11,13,15,17,19,21,23,25,27,29,31,33,35,37,39,41,43,45,47,49,51,53,55,57,59,61,63,-1,-1,-1,-1,-1,-1,-1,-1,-1,-1,-1,-1,-1,-1,-1,-1,-1,-1,-1,-1,-1,-1,-1,-1,-1,-1,-1,-1,-1,-1,-1,-1],"loss_changes":[1.3144485E10,6.4069335E9,0E0,2.8265822E10,1.4482454E10,1.2435485E10,1.033703E10,2.2458958E10,1.0722109E10,1.8391423E10,2.8666583E9,1.2857225E10,8.272065E9,1.6155216E10,2.4080736E10,1.4164584E10,3.806135E10,5.311598E9,1.4117303E10,5.3362534E8,1.2274412E9,1.7140584E10,4.2194534E9,5.4530145E9,6.8274555E9,5.7225957E10,3.1672347E10,2.2718392E9,3.0636524E9,8.3315205E9,4.8788677E10,3.5784204E10,5.5786275E10,0E0,0E0,0E0,0E0,0E0,0E0,0E0,0E0,0E0,0E0,0E0,0E0,0E0,0E0,0E0,0E0,0E0,0E0,0E0,0E0,0E0,0E0,0E0,0E0,0E0,0E0,0E0,0E0,0E0,0E0,0E0,0E0],"parents":[2147483647,0,0,1,1,3,3,4,4,5,5,6,6,7,7,8,8,9,9,10,10,11,11,12,12,13,13,14,14,15,15,16,16,17,17,18,18,19,19,20,20,21,21,22,22,23,23,24,24,25,25,26,26,27,